tree
version=v4
num_class=1
num_tree_per_iteration=1
label_index=0
max_feature_idx=3
objective=regression
feature_names=Signal_Strength Latency Required_Bandwidth Allocated_Bandwidth
feature_infos=[-124.89789115304424:-37.528147585550691] [0.0032378445735408998:112.23630476633905] [0.0020801707164228001:14501.582895714868] [0.0043034732372023996:15802.097785481294]
tree_sizes=2651 2761 2743 2760 2761 2757 2756 2761 2757 2751 2759 2770 2768 2761 2770 2769 2767 2773 2774 2783 2786 2780 2768 2792 2775 2776 2796 2781 2789 2764 2790 2775 2796 2787 2790 2789 2796 2803 2808 2803 2798 2765 2810 2790 2783 2794 2789 2779 2821 2777 2755 2750 2803 2814 2760 2808 2805 2793 2790 2719 2756 2767 2783 2770 2763 2745 2741 2792 2756 2794 2738 2768 2713 2765 2751 2704 2756 2760 2753 2761 2732 2730 2759 2763 2803 2830 2734 2791 2795 2765 2780 2783 2710 2741 2667 2757 2787 2790 2721 2797 2761 2734 2773 2733 2782 2678 2756 2728 2738 2744 2738 2768 2747 2685 2797 2753 2761 2668 2826 2722 2698 2756 2799 2724 2750 2728 2723 2790 2743 2679 2723 2661 2647 2735 2733 2680 2786 2747 2741 2592 2706 2751 2729 2593 2696 2711 2761 2697 2740 2685 2637 2677 2734 2691 2729 2703 2731 2662 2598 2720 2759 2676 2681 2740 2719 2756 2697 2639 2680 2650 2718 2689 2733 2625 2687 2710 2681 2686 2599 2720 2703 2656 2644 2658 2670 2665 2744 2619 2604 2704 2688 2703 2669 2674 2698 2591 2728 2659 2669 2682 2711 2655 2672 2625 2739 2659 2647 2730 2598 2755 2660 2637 2689 2654 2740 2701 2723 2699 2747 2725 2641 2757 2701 2652 2657 2637 2668 2677 2705 2687 2690 2622 2657 2638 2664 2768 2691 2728 2709 2728 2671 2725 2651 2618 2743 2654 2665 2656 2706 2639

Tree=0
num_leaves=31
num_cat=0
split_feature=0 2 2 3 3 1 1 2 3 0 3 1 1 2 3 3 1 3 1 2 0 3 0 3 0 0 1 2 0 3
split_gain=164600 151707 75658 67307.5 40704.6 43953.1 22079 23489 14810.6 14001.5 13285 10707.9 9521.28 8382.51 6284.23 6284.09 8420.58 5215.02 10289.1 3516.31 2532.39 2312.03 3600.2 2115.65 1681.78 1577.02 3446.49 1968.92 1402.02 1073.36
threshold=-89.550647876617504 389.7890284116408 1201.491436628505 2399.648312580694 5.739178258738372 28.989133682714069 22.274292497735967 112.1041292724946 6500.2545020156786 -82.85369807969731 11.192315259183227 33.670869638794606 40.722032486485467 300.95955822865182 1300.6025030599465 3198.9859091568519 47.937367324096407 2499.8549207075243 54.921558635742443 4400.7645906550724 -72.588093093647146 4600.2989488517715 -62.860738890531273 3801.6019640214413 -99.103330491094084 -78.537254957526201 31.973110967393584 3398.8016968718762 -84.803923519982689 12099.591173229992
decision_type=2 2 2 2 2 2 2 2 2 2 2 2 2 2 2 2 2 2 2 2 2 2 2 2 2 2 2 2 2 2
left_child=2 6 4 28 24 -6 7 -2 9 11 -7 -5 -4 -12 -15 16 -14 18 -18 23 29 25 -23 -13 -1 26 27 -11 -3 -10
right_child=1 3 12 8 5 10 -8 -9 20 21 13 19 15 14 -16 -17 17 -19 -20 -21 -22 22 -24 -25 -26 -27 -28 -29 -30 -31
leaf_value=74.435993119352148 74.797189018887366 73.909736361896321 74.158801033192191 74.150438549401429 74.128496870310556 73.924985348419867 75.467954126374991 75.466476843087179 73.96896839354234 74.654000392427136 72.772415621377377 74.534990857460159 74.199397728728215 73.413571369469949 74.123859035474851 75.109352034267744 74.192341067904039 75.118090908089712 75.001371405376204 74.299750279578021 74.46942333360083 75.10825980141162 74.794984537635798 75.101139657026806 73.963515900447788 74.818623103670276 74.946781850842669 74.140177859956594 74.135737064343573 74.305056958489843
leaf_weight=514 1013 146 203 296 875 296 624 338 63 66 98 46 181 984 67 140 150 134 149 52 798 317 436 118 37 514 81 74 2060 171
leaf_count=514 1013 146 203 296 875 296 624 338 63 66 98 46 181 984 67 140 150 134 149 52 798 317 436 118 37 514 81 74 2060 171
internal_value=74.4122 74.6075 74.0443 74.4119 73.8662 73.7389 75.1257 74.9661 74.6241 74.7343 73.5038 74.4206 74.5785 73.3965 73.458 74.6922 74.5947 74.7607 74.5961 74.7907 74.4107 74.8419 74.9287 74.9471 74.4031 74.7515 74.5923 74.3839 74.1202 74.2106
internal_weight=0 7213 3828 5238 2871 2320 1975 1351 3032 2000 1445 512 957 1149 1051 754 614 433 299 216 1032 1488 753 164 551 735 221 140 2206 234
internal_count=11041 7213 3828 5238 2871 2320 1975 1351 3032 2000 1445 512 957 1149 1051 754 614 433 299 216 1032 1488 753 164 551 735 221 140 2206 234
is_linear=0
shrinkage=1


Tree=1
num_leaves=31
num_cat=0
split_feature=0 2 2 3 3 1 1 2 3 0 3 1 1 2 3 1 3 3 1 2 0 3 0 3 0 3 0 1 2 0
split_gain=142643 131435 65598.1 58324.3 35264.4 38099.6 19220.9 21181 12848.8 12130.6 11506.3 9290.68 8261.51 7304.85 5452.09 7309.62 5428.41 4437.06 8762.84 3057.98 2200.3 2000.31 3118.78 1832.11 1489.62 1374.63 1360.81 2995.12 1765.91 1218.04
threshold=-89.550647876617504 389.7890284116408 1201.491436628505 2399.648312580694 5.739178258738372 28.989133682714069 22.901900971870461 105.45963425689793 6500.2545020156786 -82.85369807969731 11.192315259183227 33.670869638794606 40.722032486485467 300.95955822865182 3198.9859091568519 48.302089293035529 1300.6025030599465 2499.8549207075243 54.921558635742443 4400.7645906550724 -72.588093093647146 4600.2989488517715 -62.860738890531273 3801.6019640214413 -99.317319442114709 3099.1035908739004 -78.537254957526201 31.973110967393584 2399.932030334503 -84.803923519982689
decision_type=2 2 2 2 2 2 2 2 2 2 2 2 2 2 2 2 2 2 2 2 2 2 2 2 2 2 2 2 2 2
left_child=2 6 4 29 24 -6 7 -2 9 11 -7 -5 -4 -12 15 25 -15 18 -17 23 -10 26 -23 -13 -1 -14 27 28 -11 -3
right_child=1 3 12 8 5 10 -8 -9 20 21 13 19 14 16 -16 17 -18 -19 -20 -21 -22 22 -24 -25 -26 -27 -28 -29 -30 -31
leaf_value=0.026906482498476866 0.35771480981625897 -0.46805184333936495 -0.23597332679124094 -0.24370426342798676 -0.26404343528399155 -0.4536111187968706 0.99708894904000822 0.97540939730621656 -0.18796564238624078 0.38556489276398465 -1.5282548993279319 0.11463616141181639 -0.26571209377921556 -0.92942720089635633 0.64945229793357906 -0.20277342710826948 -0.26890782355380161 0.66508691001017373 0.54882572531038665 -0.10493097628043303 0.053267487878738147 0.64804766824440829 0.35633805045060019 0.64192845502864337 -0.37011664234994412 0.24509713021042775 0.37832300522948936 0.49838770587412379 -0.17027135030210799 -0.25727899009291139
leaf_weight=503 1022 146 203 296 875 296 589 364 234 35 98 46 161 984 140 146 67 130 149 52 798 317 436 118 48 28 514 81 105 2060
leaf_count=503 1022 146 203 296 875 296 589 364 234 35 98 46 161 984 140 146 67 130 149 52 798 317 436 118 48 28 514 81 105 2060
internal_value=0 0.181809 -0.342465 -0.000218196 -0.508338 -0.626836 0.664178 0.521289 0.197319 0.299906 -0.845691 0.00789084 0.15496 -0.945528 0.260842 0.170028 -0.888123 0.329481 0.177315 0.352674 -0.00149361 0.400096 0.480845 0.498527 -0.00854758 -0.187128 0.315978 0.167896 -0.0262854 -0.271745
internal_weight=0 7213 3828 5238 2871 2320 1975 1386 3032 2000 1445 512 957 1149 754 614 1051 425 295 216 1032 1488 753 164 551 189 735 221 140 2206
internal_count=11041 7213 3828 5238 2871 2320 1975 1386 3032 2000 1445 512 957 1149 754 614 1051 425 295 216 1032 1488 753 164 551 189 735 221 140 2206
is_linear=0
shrinkage=0.0694337


Tree=2
num_leaves=31
num_cat=0
split_feature=0 2 2 3 2 1 1 2 2 0 3 1 1 2 3 3 1 3 1 2 0 3 0 0 0 1 2 0 3 3
split_gain=123617 113865 56883.5 50547.5 30574 32803.1 16647.7 18360 11154 10514.6 10279.8 8065.07 7259.23 6365.32 4688.75 4448.96 6748.33 4288.28 7587.97 3076.02 1905.6 1732.06 2697.34 1237.97 1172.13 2600.25 1573.23 1060.93 987.2 954.602
threshold=-89.550647876617504 389.7890284116408 1201.491436628505 2399.648312580694 4.730309991819559 28.989133682714069 22.901900971870461 105.45963425689793 6200.653005660889 -82.85369807969731 11.192315259183227 34.260440977966169 39.45276149287043 300.95955822865182 1300.6025030599465 3201.829695796609 46.649931547038868 2599.4447298110144 54.921558635742443 4400.7645906550724 -72.588093093647146 4600.2989488517715 -62.860738890531273 -98.790287017929174 -78.537254957526201 31.973110967393584 3398.8016968718762 -84.093634918469149 1899.4676531671123 3801.6019640214413
decision_type=2 2 2 2 2 2 2 2 2 2 2 2 2 2 2 2 2 2 2 2 2 2 2 2 2 2 2 2 2 2
left_child=2 6 4 27 23 -6 7 -2 9 11 -7 -5 -4 -12 -15 16 -14 18 -18 29 -10 24 -23 -1 25 26 -11 -3 -20 -13
right_child=1 3 12 8 5 10 -8 -9 20 21 13 19 15 14 -16 -17 17 -19 28 -21 -22 22 -24 -25 -26 -27 -28 -29 -30 -31
leaf_value=0.020583455530378561 0.3329271073984309 -0.4323640399036941 -0.25994695845134158 -0.20967198446701532 -0.2457528094686022 -0.41968995085563615 0.92809760362515481 0.90806259227954123 -0.17502788834913233 0.21714121195820135 -1.4243178450009299 0.16651168045586531 -0.23303362009373385 -0.86502788042339163 -0.2507911504814519 0.59320042006250417 -0.14413324463774929 0.59341542370691791 0.1956958544103653 -0.0979216893990979 0.049468946666685505 0.60334059878555513 0.33191195657569816 -0.43774431641670808 0.35215904503340562 0.46463740323120084 -0.24213305766110454 -0.23913198136498759 0.61984263562553321 0.61340700277265103
leaf_weight=516 1022 152 173 315 875 303 589 364 234 66 98 33 159 984 67 136 190 149 40 52 798 317 436 28 514 81 74 2054 110 112
leaf_count=516 1022 152 173 315 875 303 589 364 234 66 98 33 159 984 67 136 190 149 40 52 798 317 436 28 514 81 74 2054 110 112
internal_value=0 0.169272 -0.318786 -0.000150076 -0.47325 -0.582718 0.618245 0.485241 0.183744 0.279326 -0.785003 0.00742784 0.144409 -0.880239 -0.826634 0.234346 0.157077 0.28479 0.146184 0.354197 -0.00147916 0.372604 0.447783 -0.00418103 0.294269 0.156694 -0.0241426 -0.25293 0.512272 0.516857
internal_weight=0 7213 3828 5238 2871 2327 1975 1386 3032 2000 1452 512 957 1149 1051 784 648 489 340 197 1032 1488 753 544 735 221 140 2206 150 145
internal_count=11041 7213 3828 5238 2871 2327 1975 1386 3032 2000 1452 512 957 1149 1051 784 648 489 340 197 1032 1488 753 544 735 221 140 2206 150 145
is_linear=0
shrinkage=0.0694337


Tree=3
num_leaves=31
num_cat=0
split_feature=0 2 3 3 3 1 1 2 3 0 3 3 1 1 2 3 1 3 1 2 0 3 0 3 0 3 0 1 2 3
split_gain=107128 98645.6 49375.6 43806.6 26103.7 27373.9 14418.7 15914.5 9674.4 9108.84 7769.68 8021.78 7072.06 6730.14 4756.84 3737.75 6465.81 2686.47 7614.46 2332.6 1651.77 1498.55 2335.85 1363.98 1162.2 1112.38 1011.16 2268.42 1356.04 942.583
threshold=-89.550647876617504 389.7890284116408 1799.5394523454211 2399.648312580694 5.739178258738372 28.989133682714069 22.901900971870461 105.45963425689793 6500.2545020156786 -82.85369807969731 11.192315259183227 1300.6025030599465 33.670869638794606 40.722032486485467 300.95955822865182 3198.9859091568519 48.302089293035529 2499.8549207075243 54.213014580056829 4400.7645906550724 -72.588093093647146 4600.2989488517715 -62.860738890531273 3801.6019640214413 -99.317319442114709 3099.1035908739004 -78.537254957526201 32.299324341596638 2399.932030334503 12099.591173229992
decision_type=2 2 2 2 2 2 2 2 2 2 2 2 2 2 2 2 2 2 2 2 2 2 2 2 2 2 2 2 2 2
left_child=2 6 4 -3 24 -6 7 -2 9 12 -7 14 -5 -4 -12 16 25 18 -18 23 29 26 -23 -14 -1 -15 27 28 -11 -10
right_child=1 3 13 8 5 10 -8 -9 20 21 11 -13 19 15 -16 -17 17 -19 -20 -21 -22 22 -24 -25 -26 -27 -28 -29 -30 -31
leaf_value=0.025014618169664889 0.30985704751808962 -0.23541783456963725 -0.20581720037562967 -0.21244129624506697 -0.22869783368509278 -0.39559785953849302 0.86387997687066009 0.84536570874030481 -0.38901015775566067 0.34603328807799311 -1.3274494637578442 -0.20621735750888848 0.10301487287146721 -0.23585894457007084 -0.80509070550941375 0.56603017067394112 -0.2077072543470479 0.58408925759697605 0.54127590365013001 -0.091380613741487829 0.046029843737753241 0.56171775854101336 0.3089979007648756 0.55911127776039382 -0.32567471551458665 0.22331179362299036 0.32780453097098333 0.44505429239837446 -0.13882088728950068 -0.07487940438729683
leaf_weight=503 1022 2206 202 296 876 296 589 364 63 35 98 103 46 161 984 140 120 130 139 52 798 317 436 118 48 28 514 77 109 171
leaf_count=503 1022 2206 202 296 876 296 589 364 63 35 98 103 46 161 984 140 120 130 139 52 798 317 436 118 48 28 514 77 109 171
internal_value=0 0.157597 -0.296747 -9.32657e-05 -0.436952 -0.537456 0.575488 0.451687 0.171097 0.260115 -0.719375 -0.799252 0.0070148 0.146183 -0.855016 0.245807 0.166158 0.327646 0.194553 0.307876 -0.00138989 0.346934 0.416901 0.435289 -0.00625327 -0.165076 0.274009 0.146095 -0.0163438 -0.162981
internal_weight=0 7213 3828 5238 2908 2357 1975 1386 3032 2000 1481 1185 512 920 1082 718 578 389 259 216 1032 1488 753 164 551 189 735 221 144 234
internal_count=11041 7213 3828 5238 2908 2357 1975 1386 3032 2000 1481 1185 512 920 1082 718 578 389 259 216 1032 1488 753 164 551 189 735 221 144 234
is_linear=0
shrinkage=0.0694337


Tree=4
num_leaves=31
num_cat=0
split_feature=0 2 3 3 2 1 1 2 2 0 1 3 3 1 2 3 1 2 3 1 0 3 0 0 0 3 1 3 0 1
split_gain=92891.2 86617.9 42761.3 38331.9 22886.8 22571.9 12366.9 14328.2 8239.26 8200.83 7021.35 6889.37 6936.87 5706.4 4173.29 3166.35 5606.55 2439.54 2331.07 6609.78 1434.03 1244.52 2062.6 1099.9 970.15 969.889 900.127 853.336 850.607 1942.11
threshold=-89.926068595933089 389.7890284116408 1799.5394523454211 2399.648312580694 4.730309991819559 28.359991896503271 23.135232725471923 105.45963425689793 6200.653005660889 -82.530227706475969 34.260440977966169 11.192315259183227 1000.8622535412171 40.722032486485467 300.95955822865182 3198.9859091568519 48.302089293035529 4400.7645906550724 2499.8549207075243 54.213014580056829 -72.588093093647146 4600.2989488517715 -62.860738890531273 -85.690301905229504 -98.790287017929174 3099.1035908739004 28.557709692140161 3702.0123293556485 -78.696652596656079 31.973110967393584
decision_type=2 2 2 2 2 2 2 2 2 2 2 2 2 2 2 2 2 2 2 2 2 2 2 2 2 2 2 2 2 2
left_child=2 6 4 23 24 -6 7 -2 9 10 -5 -7 14 -4 -13 16 25 27 19 -18 -10 28 -23 26 -1 -15 -3 -12 29 -11
right_child=1 3 13 8 5 11 -8 -9 20 21 17 12 -14 15 -16 -17 18 -19 -20 -21 -22 22 -24 -25 -26 -27 -28 -29 -30 -31
leaf_value=0.019328211956480486 0.28800193697888887 -0.24875794670815418 -0.20729868352728659 -0.1848443757319489 -0.218161372689054 -0.36595053856246229 0.80748969443627694 0.79000873285633244 -0.15200543507694672 -0.027786933853620459 0.095617513148284955 -1.2371691436380894 -0.19377152155949745 -0.21968837795151552 -0.74784598619692921 0.52510300169479707 -0.1935277347658404 -0.086892657133074591 0.54416368804815096 0.50423960130661172 0.042741001030459358 0.52579008826246876 0.28782797393665271 -0.20684740000658086 -0.38641630276379807 0.20886466464066555 -0.60396372618796368 0.52083913464755516 0.30412450750173059 0.42953635261169398
leaf_weight=516 1024 91 180 339 858 303 579 376 234 128 30 98 104 161 981 138 120 53 130 139 798 315 436 2068 28 28 63 136 521 66
leaf_count=516 1024 91 180 339 858 303 579 376 234 128 30 98 104 161 981 138 120 53 130 139 798 315 436 2068 28 28 63 136 521 66
internal_value=0 0.145486 -0.278752 -0.00141685 -0.408711 -0.502801 0.536976 0.423934 0.158057 0.239398 0.0123807 -0.666482 -0.742514 0.13988 -0.794744 0.227792 0.154843 0.317499 0.30523 0.181171 -0.00142909 0.325528 0.389076 -0.220785 -0.00254716 -0.153548 -0.401432 0.447336 0.257568 0.129601
internal_weight=0 7257 3784 5278 2888 2344 1979 1400 3056 2024 558 1486 1183 896 1079 716 578 219 389 259 1032 1466 751 2222 544 189 154 166 715 194
internal_count=11041 7257 3784 5278 2888 2344 1979 1400 3056 2024 558 1486 1183 896 1079 716 578 219 389 259 1032 1466 751 2222 544 189 154 166 715 194
is_linear=0
shrinkage=0.0694337


Tree=5
num_leaves=31
num_cat=0
split_feature=0 2 2 3 3 1 1 2 3 3 0 1 1 2 3 1 3 3 1 2 3 1 0 3 3 0 0 3 0 1
split_gain=80496.6 75046.5 37105.7 33226.1 20355.3 19934.7 10710.8 12418.9 7442.21 7145.41 7105.47 6095.2 4612.22 4236.31 3074.79 4864.64 2972.67 2451.64 5276.38 1855.86 1281.79 2191.85 1243.1 1093.28 1076.54 1786.13 967.894 823.184 733.815 1689.83
threshold=-89.926068595933089 389.7890284116408 1201.491436628505 2399.648312580694 5.1894441149462578 28.359991896503271 23.135232725471923 105.45963425689793 11.192315259183227 6500.2545020156786 -82.530227706475969 33.670869638794606 40.722032486485467 300.95955822865182 3099.1035908739004 48.302089293035529 1000.8622535412171 2499.8549207075243 55.68190967528183 4400.7645906550724 2199.8477863227567 52.30669596941447 -72.588093093647146 3801.6019640214413 4600.2989488517715 -62.860738890531273 -77.684311204043354 12099.591173229992 -78.696652596656079 31.973110967393584
decision_type=2 2 2 2 2 2 2 2 2 2 2 2 2 2 2 2 2 2 2 2 2 2 2 2 2 2 2 2 2 2
left_child=2 6 4 26 -1 -6 7 -2 -7 10 11 -5 -4 -10 15 -14 -15 18 20 23 -17 -22 27 -13 28 -26 -3 -11 29 -12
right_child=1 3 12 9 5 8 -8 -9 13 22 24 19 14 16 -16 17 -18 -19 -20 -21 21 -23 -24 -25 25 -27 -28 -29 -30 -31
leaf_value=0.012418515601322807 0.26804486972478236 -0.36385282634313232 -0.19306733171125351 -0.18619140303472154 -0.20304975231165651 -0.33249281129225272 0.75162063662608403 0.73545311431091587 -1.1530288335637182 -0.35262981610923549 -0.025888017032871063 0.11794680033051823 -0.20462648446223841 -0.69602858040412197 0.44713961525082108 -0.27179306766764516 -0.20895604769798323 0.50833526285503772 0.47209030936686702 -0.081084157106383128 -0.21183578272418191 0.56387615489238796 0.039775605920353889 0.49098569171319972 0.48951870181304641 0.2679463365927901 -0.19154886159904019 -0.059312661450420252 0.28309083173344041 0.40061091322394671
leaf_weight=512 1024 175 180 319 858 335 579 376 98 63 128 58 161 981 178 102 68 118 125 53 40 28 798 128 315 436 2047 171 521 66
leaf_count=512 1024 175 180 319 858 335 579 376 98 63 128 58 161 981 178 102 68 118 125 53 40 28 798 128 315 436 2047 171 521 66
internal_value=0 0.135439 -0.259483 -0.00129698 -0.383725 -0.470427 0.499842 0.394618 -0.62459 0.147174 0.222924 0.0115829 0.120496 -0.708974 0.196148 0.116638 -0.665122 0.242771 0.133068 0.27576 -0.117658 0.111759 -0.00133505 0.378324 0.303095 0.36224 -0.205536 -0.141543 0.239824 0.12082
internal_weight=0 7257 3784 5278 2852 2340 1979 1400 1482 3056 2024 558 932 1147 752 574 1049 413 295 239 170 68 1032 186 1466 751 2222 234 715 194
internal_count=11041 7257 3784 5278 2852 2340 1979 1400 1482 3056 2024 558 932 1147 752 574 1049 413 295 239 170 68 1032 186 1466 751 2222 234 715 194
is_linear=0
shrinkage=0.0694337


Tree=6
num_leaves=31
num_cat=0
split_feature=0 2 3 3 2 1 1 2 2 0 1 3 2 1 2 3 1 2 1 3 0 3 0 0 1 0 3 2 0 1
split_gain=69752.4 65019.8 32235 28791.8 17352.3 17040 9276.29 10763.9 6206.12 6158.43 5328.99 5112.52 5114.4 4476.99 3156.19 2807.01 4237.35 1856.51 1620.74 4902.8 1079.34 932.759 1543.99 841.986 792.833 786.11 727.028 717.554 717.753 1482.73
threshold=-89.926068595933089 389.7890284116408 1799.5394523454211 2399.648312580694 4.730309991819559 40.317392005740103 23.135232725471923 105.45963425689793 6200.653005660889 -82.530227706475969 34.260440977966169 11.192315259183227 901.96935020647072 43.276496326033218 300.95955822865182 2999.5317692468602 49.180131260111551 4400.7645906550724 54.921558635742443 2299.8378810931054 -72.588093093647146 4600.2989488517715 -62.860738890531273 -85.690301905229504 28.557709692140161 -98.790287017929174 12200.003102898829 2100.2004823078105 -77.469950955116374 31.973110967393584
decision_type=2 2 2 2 2 2 2 2 2 2 2 2 2 2 2 2 2 2 2 2 2 2 2 2 2 2 2 2 2 2
left_child=2 6 4 23 25 -6 7 -2 9 10 -5 -7 14 -4 -13 16 -15 -12 19 -18 26 27 -23 24 -3 -1 -10 -11 29 -29
right_child=1 3 13 8 5 11 -8 -9 20 21 17 12 -14 15 -16 -17 18 -19 -20 -21 -22 22 -24 -25 -26 -27 -28 28 -30 -31
leaf_value=0.018981766635556643 0.24947073510231416 -0.20715967153755585 -0.10903647255515569 -0.16093096866052023 -0.18984414692364829 -0.31997928481084575 0.69961708333527639 0.68466490272113878 -0.2648156581604505 0.5637166604829873 0.38999122975340217 -1.0746109665719179 -0.17064146529976282 -0.17985512190158998 -0.64859559232860098 0.49647477822620018 -0.21773130983399816 -0.075663929276650999 0.46765938161635856 0.44760588521588002 0.036927245717766038 0.45574948729920589 0.24960003396605199 -0.17909131910621767 -0.53888334711516805 -0.34628200695846512 -0.018013644193502393 -0.012712192843419536 0.25713208302815332 0.37363337825283272
leaf_weight=516 1024 91 277 339 862 303 579 376 106 28 166 98 103 137 978 141 94 53 129 118 798 315 436 2068 63 28 128 158 463 66
leaf_count=516 1024 91 277 339 862 303 579 376 106 28 166 98 103 137 978 141 94 53 129 118 798 315 436 2068 63 28 128 158 463 66
internal_value=0 0.126089 -0.241533 -0.00118182 -0.354371 -0.436298 0.465277 0.367331 0.137024 0.20762 0.0108397 -0.579046 -0.644778 0.121916 -0.68956 0.22562 0.14351 0.2767 0.274331 0.152365 -0.00136608 0.282258 0.33735 -0.191307 -0.349499 -0.000667124 -0.132025 0.223303 0.20749 0.102557
internal_weight=0 7257 3784 5278 2888 2344 1979 1400 3056 2024 558 1482 1179 896 1076 619 478 219 341 212 1032 1466 751 2222 154 544 234 715 687 224
internal_count=11041 7257 3784 5278 2888 2344 1979 1400 3056 2024 558 1482 1179 896 1076 619 478 219 341 212 1032 1466 751 2222 154 544 234 715 687 224
is_linear=0
shrinkage=0.0694337


Tree=7
num_leaves=31
num_cat=0
split_feature=0 2 3 3 3 1 1 2 2 0 1 3 3 1 2 3 1 2 3 1 1 3 3 0 0 3 1 2 3 0
split_gain=60450 56333 27950.9 24958.5 15121.4 14333.7 8033.67 9329.32 5385.56 5398.64 5106.37 5041.38 4423.46 3884.72 2762.35 2434.99 3678.37 1422.66 2000.48 1986.51 1406.07 4258.15 1108.32 937.507 740.482 703.451 2955.68 670.279 652.996 642.716
threshold=-89.926068595933089 389.7890284116408 1799.5394523454211 2399.648312580694 5.1894441149462578 28.359991896503271 23.135232725471923 105.45963425689793 6200.653005660889 -81.080293581553462 32.706867613141291 11.192315259183227 1000.8622535412171 43.276496326033218 300.95955822865182 2999.5317692468602 49.180131260111551 4400.7645906550724 4001.4499071848854 37.077499683047684 54.921558635742443 2299.8378810931054 4499.8002323082019 -72.588093093647146 -77.684311204043354 3499.998252457638 38.426391267552383 10200.617959346173 12099.591173229992 -74.668735563422487
decision_type=2 2 2 2 2 2 2 2 2 2 2 2 2 2 2 2 2 2 2 2 2 2 2 2 2 2 2 2 2 2
left_child=2 6 4 24 -1 -6 7 -2 9 10 22 -7 14 25 -13 16 -15 18 19 -12 21 -18 -5 28 -3 -4 -27 -25 -10 -11
right_child=1 3 13 8 5 11 -8 -9 23 29 17 12 -14 15 -16 -17 20 -19 -20 -21 -22 -23 -24 27 -26 26 -28 -29 -30 -31
leaf_value=0.011923622966659074 0.23218369057632449 -0.31670000274888332 -0.21062833176719004 -0.19614028812953449 -0.17583473978076791 -0.29014966480751958 0.65121153914509466 0.63738401300444358 -0.31110997587173422 0.33557042749046484 -0.06931345259321825 -1.0015262559443769 -0.16054221830055412 -0.16755131194109235 -0.60295839957220454 0.46249695034680799 -0.20293623083488757 -0.093865307287437791 0.46453233835823204 0.4863561995297232 0.43569624977214244 0.41705793092870019 0.25894202017994422 0.30801808048015428 -0.16583971226086164 -0.20601346036258747 0.47442966392846819 0.019242958389882794 -0.049749171463294876 0.23322744340332474
leaf_weight=512 1024 175 139 309 858 335 579 376 63 526 102 98 104 137 981 141 94 56 144 42 129 118 26 39 2047 95 43 759 171 819
leaf_count=512 1024 175 139 309 858 335 579 376 63 526 102 98 104 137 981 141 94 56 144 42 129 118 26 39 2047 95 43 759 171 819
internal_value=0 0.117386 -0.224846 -0.00107631 -0.32992 -0.403618 0.433103 0.341931 0.127599 0.193362 0.0332639 -0.531817 -0.599455 0.113578 -0.641182 0.210187 0.133669 0.220778 0.282908 0.0958845 0.255573 0.141871 -0.158842 -0.00130509 -0.178096 -0.101521 0.00836415 0.0343698 -0.12309 0.273856
internal_weight=0 7257 3784 5278 2888 2376 1979 1400 3056 2024 679 1518 1183 896 1079 619 478 344 288 144 341 212 335 1032 2222 277 138 798 234 1345
internal_count=11041 7257 3784 5278 2888 2376 1979 1400 3056 2024 679 1518 1183 896 1079 619 478 344 288 144 341 212 335 1032 2222 277 138 798 234 1345
is_linear=0
shrinkage=0.0694337


Tree=8
num_leaves=31
num_cat=0
split_feature=0 2 3 3 2 1 1 2 2 0 1 3 2 1 2 3 1 2 3 1 3 0 0 1 0 1 2 2 1 3
split_gain=52394.6 49174.2 24299.8 21589.6 13292.6 12588.8 6928.87 8167.36 4552.59 4941.16 4379.71 3788.04 3849.88 3290.15 2379.09 2112.23 3206.71 1267.33 1190.42 3830.8 900.555 995.479 815.786 768.041 730.296 1312.81 1089.85 811.882 725.303 9724.15
threshold=-90.225258156764497 389.7890284116408 1799.5394523454211 2399.648312580694 4.730309991819559 40.317392005740103 23.135232725471923 105.45963425689793 6200.653005660889 -83.593594532493043 35.40895570012281 11.192315259183227 901.96935020647072 43.276496326033218 300.95955822865182 2999.5317692468602 49.629630546727661 4400.7645906550724 2299.8378810931054 55.68190967528183 4598.7219197542945 -63.1564294813058 -72.588093093647146 29.801398267213852 -78.696652596656079 32.706867613141291 2399.932030334503 3700.7894059036958 27.331272518997551 1401.0472836273073
decision_type=2 2 2 2 2 2 2 2 2 2 2 2 2 2 2 2 2 2 2 2 2 2 2 2 2 2 2 2 2 2
left_child=2 6 4 28 -1 -6 7 -2 9 10 -5 -7 14 -4 -13 16 -15 -12 19 -18 24 23 -10 -22 25 26 -11 -27 29 -3
right_child=1 3 13 8 5 11 -8 -9 22 20 17 12 -14 15 -16 -17 18 -19 -20 -21 21 -23 -24 -25 -26 27 -28 -29 -30 -31
leaf_value=3.722500351450221e-05 0.21609455123611868 -0.1617365943628255 -0.10101738404353065 -0.16309537876544711 -0.16642202550470556 -0.27982577724340657 0.60615511337800254 0.59488895577066414 -0.11482212150934863 0.29906945585718686 0.39545047652618409 -0.93341213385842847 -0.14809511496607317 -0.14052854005991938 -0.56299907257667536 0.43084448508991657 -0.17748856806716179 -0.034955271573975814 0.40619042669566247 0.42847446188556448 0.0099911897939827573 0.21621684465257396 0.032059729790265397 0.40353636553517253 0.2282689665001624 0.068357245441031209 -0.14534612417003268 0.4837515263328499 -0.20438986848262317 1.0135655840636528
leaf_weight=544 1024 1053 251 324 847 303 579 377 234 32 117 98 103 149 975 141 96 44 132 101 27 444 798 338 513 47 118 46 1153 33
leaf_count=544 1024 1053 251 324 847 303 579 377 234 32 117 98 103 149 975 141 96 44 132 101 27 444 798 338 513 47 118 46 1153 33
internal_value=0 0.108335 -0.21118 -0.00158866 -0.308592 -0.380799 0.403542 0.318895 0.11755 0.177376 -0.0158266 -0.503029 -0.559773 0.109898 -0.59874 0.19581 0.124501 0.277586 0.245285 0.13335 0.237325 0.288975 -0.00120512 0.375211 0.181148 0.0797413 -0.0464123 0.282017 -0.165634 -0.123988
internal_weight=0 7301 3740 5321 2870 2326 1980 1401 3082 2050 485 1479 1176 870 1073 619 478 161 329 197 1565 809 1032 365 756 243 150 93 2239 1086
internal_count=11041 7301 3740 5321 2870 2326 1980 1401 3082 2050 485 1479 1176 870 1073 619 478 161 329 197 1565 809 1032 365 756 243 150 93 2239 1086
is_linear=0
shrinkage=0.0694337


Tree=9
num_leaves=31
num_cat=0
split_feature=0 2 2 3 3 1 1 2 3 0 1 3 1 2 3 1 2 3 1 3 1 2 3 0 0 0 1 2 0 1
split_gain=45415.2 42592.4 21071.5 18703.5 11849.6 11583.5 6000.33 7078.58 3952.54 4285.39 3798.22 3434.63 2637.13 2407.64 2140.99 2789.03 1616.85 1505.3 3283.88 1191.95 1715.8 1102.16 778.101 860.966 708.344 706.743 663.42 644.482 664.041 1208.07
threshold=-90.225258156764497 389.7890284116408 1201.491436628505 2399.648312580694 5.739178258738372 40.317392005740103 23.135232725471923 105.45963425689793 6500.2545020156786 -83.593594532493043 35.40895570012281 11.192315259183227 41.685253403232046 300.95955822865182 3099.1035908739004 48.302089293035529 901.96935020647072 2499.8549207075243 56.336367543601824 2199.8477863227567 52.30669596941447 4400.7645906550724 4598.7219197542945 -63.1564294813058 -99.103330491094084 -72.588093093647146 29.801398267213852 2100.2004823078105 -77.90467891733347 32.706867613141291
decision_type=2 2 2 2 2 2 2 2 2 2 2 2 2 2 2 2 2 2 2 2 2 2 2 2 2 2 2 2 2 2
left_child=2 6 4 -3 24 -6 7 -2 9 10 -5 -7 -4 -13 15 -14 -15 18 19 -17 -21 -12 27 26 -1 -10 -24 -11 29 -29
right_child=1 3 12 8 5 11 -8 -9 25 22 21 13 14 16 -16 17 -18 -19 -20 20 -22 -23 23 -25 -26 -27 -28 28 -30 -31
leaf_value=0.020879672088758402 0.20112029573399465 -0.15409243979611853 -0.13152272845157167 -0.15184229664471249 -0.15489465142965558 -0.26458739748456384 0.56421608572736626 0.55380713214963795 -0.1069188656488945 0.48962444897400359 0.36846591852601929 -0.86993042305545443 -0.16254763538339859 -0.52399003326736704 0.38712735950457644 -0.22242595894807735 -0.160579910495632 0.39379288430971066 0.40304239351782484 -0.18480226104741504 0.44548315923799348 -0.032636295581692905 0.009346444482153984 0.20135576954687925 -0.28581266342726586 0.029793343205315705 0.37568634674208656 -0.044521034603190776 0.2047882282533092 0.26341513643095094
leaf_weight=514 1024 2239 193 324 847 296 579 377 234 28 117 98 149 975 151 109 67 118 107 40 39 44 27 444 37 798 338 170 465 93
leaf_count=514 1024 2239 193 324 847 296 579 377 234 28 117 98 149 975 151 109 67 118 107 40 39 44 27 444 37 798 338 170 465 93
internal_value=0 0.100898 -0.196576 -0.00140254 -0.289728 -0.359422 0.375639 0.296845 0.109484 0.165228 -0.01467 -0.479521 0.0945745 -0.534571 0.156269 0.09269 -0.501184 0.185623 0.0995103 -0.0746338 0.12718 0.258539 0.221059 0.269102 -0.000321821 -0.0011545 0.349358 0.168784 0.154817 0.0647788
internal_weight=0 7301 3740 5321 2834 2283 1980 1401 3082 2050 485 1436 906 1140 713 562 1042 413 295 188 79 161 1565 809 551 1032 365 756 728 263
internal_count=11041 7301 3740 5321 2834 2283 1980 1401 3082 2050 485 1436 906 1140 713 562 1042 413 295 188 79 161 1565 809 551 1032 365 756 728 263
is_linear=0
shrinkage=0.0694337


Tree=10
num_leaves=31
num_cat=0
split_feature=0 2 3 3 3 1 1 2 2 0 1 3 3 1 2 3 1 3 1 2 3 1 3 0 1 0 2 3 3 3
split_gain=39374 36601.9 18205.9 16254.1 9987.77 9405.49 5219.74 6066.03 3524.99 3624.52 3413.17 3194.93 2845.35 2669.4 1826.22 1624.09 2726.71 1191.89 3066.26 1080.8 1474.44 1429.37 762.172 648.241 654.953 612.414 579.924 578.783 863.424 528.159
threshold=-89.926068595933089 389.7890284116408 1799.5394523454211 2399.648312580694 5.1894441149462578 28.359991896503271 23.135232725471923 105.45963425689793 6200.653005660889 -81.080293581553462 32.706867613141291 11.192315259183227 1000.8622535412171 40.722032486485467 300.95955822865182 3198.9859091568519 47.656711999602919 2499.8549207075243 54.213014580056829 4400.7645906550724 4001.4499071848854 37.077499683047684 4499.8002323082019 -84.093634918469149 28.557709692140161 -72.588093093647146 10200.617959346173 12399.978111261289 13798.405595652015 3501.0724146554135
decision_type=2 2 2 2 2 2 2 2 2 2 2 2 2 2 2 2 2 2 2 2 2 2 2 2 2 2 2 2 2 2
left_child=2 6 4 23 -1 -6 7 -2 9 10 22 -7 14 -4 -13 16 -15 18 -18 20 21 29 -5 24 -3 27 -27 -10 -29 -12
right_child=1 3 13 8 5 11 -8 -9 25 -11 19 12 -14 15 -16 -17 17 -19 -20 -21 -22 -23 -24 -25 -26 26 -28 28 -30 -31
leaf_value=0.011539433911894662 0.18718369395762646 -0.15712708216353077 -0.14555816114797487 -0.16285799094871792 -0.14151944317319468 -0.23723409686866176 0.52517878308153088 0.51404268930161057 -0.18671699341231604 0.22231689419183487 0.095054265882061062 -0.8107661644021632 -0.13122188769224852 -0.1322421071279368 -0.48618053377550796 0.36485636449638909 -0.13135525574619772 0.36130700532491272 0.33387622551974128 -0.095205141383683689 0.38861902752665883 0.4035869857431123 0.21404508070229153 -0.13236363568357851 -0.44564471826267826 0.28216872449882946 0.013627336628507581 0.21479468917431033 -0.20533088467247301 -0.21412032627412464
leaf_weight=512 1024 102 180 309 858 335 579 376 142 1345 48 98 104 170 981 138 130 139 139 56 144 42 26 2054 66 39 759 53 39 54
leaf_count=512 1024 102 180 309 858 335 579 376 142 1345 48 98 104 170 981 138 130 139 139 56 144 42 26 2054 66 39 759 53 39 54
internal_value=0 0.0948034 -0.181398 -0.000677198 -0.266203 -0.3261 0.349293 0.275741 0.103156 0.15636 0.025127 -0.429959 -0.483853 0.091698 -0.517336 0.151879 0.0995602 0.196831 0.108982 0.178487 0.23272 0.0721276 -0.131863 -0.143539 -0.275706 -0.00109293 0.0277016 -0.0995596 0.0338893 -0.0676187
internal_weight=0 7257 3784 5278 2888 2376 1979 1400 3056 2024 679 1518 1183 896 1079 716 578 408 269 344 288 144 335 2222 168 1032 798 234 92 102
internal_count=11041 7257 3784 5278 2888 2376 1979 1400 3056 2024 679 1518 1183 896 1079 716 578 408 269 344 288 144 335 2222 168 1032 798 234 92 102
is_linear=0
shrinkage=0.0694337


Tree=11
num_leaves=31
num_cat=0
split_feature=0 2 2 3 2 1 1 2 3 2 0 1 1 2 3 1 1 3 3 2 3 1 3 1 2 1 3 3 3 0
split_gain=34131.5 31973.7 15862.1 14046.2 9016.29 8355.33 4497 5324.69 3067.28 2972.69 3288.72 3098.48 2025.39 1831.43 1615.12 2202.75 1278.23 2944.78 1190.86 930.545 1274.19 1399.82 670.131 666.161 1413.74 612.089 8468.62 1306.01 1285.45 531.918
threshold=-90.225258156764497 389.7890284116408 1201.491436628505 2399.648312580694 4.1204036089383917 28.359991896503271 23.135232725471923 105.45963425689793 11.192315259183227 6200.653005660889 -81.080293581553462 32.706867613141291 41.377494107369763 300.95955822865182 3099.1035908739004 47.656711999602919 57.045481424219979 2199.8477863227567 1000.8622535412171 4400.7645906550724 4001.4499071848854 38.742454308075843 4499.8002323082019 50.901223668546798 2199.9479783667966 27.331272518997551 1401.0472836273073 1200.9030856766296 1099.1760368712623 -72.588093093647146
decision_type=2 2 2 2 2 2 2 2 2 2 2 2 2 2 2 2 2 2 2 2 2 2 2 2 2 2 2 2 2 2
left_child=2 6 4 25 -1 -6 7 -2 -7 10 11 22 -4 -10 15 -14 17 -17 -15 20 21 -13 -5 24 -19 26 27 -3 -27 -11
right_child=1 3 12 9 5 8 -8 -9 13 29 -12 19 14 18 -16 16 -18 23 -20 -21 -22 -23 -24 -25 -26 28 -28 -29 -30 -31
leaf_value=0.013681292621113946 0.17421281213252418 -0.14733748614710343 -0.12327610830783153 -0.15229864208787844 -0.13360243843050246 -0.22185201107755351 0.48884239177121552 0.48018366088132769 -0.75562567308447937 -0.092753746184997127 0.20690412068711322 -0.049985363118338171 -0.16153782113195589 -0.45345650352352568 0.32964863859733401 -0.18500332984547976 0.38489267828711149 -0.15735103197922248 -0.14286923675676422 -0.088828246221412471 0.36201469884863807 0.41639579237940877 0.20026978317115857 0.35048784712183756 0.35609690034192543 -0.51625752301460237 0.9661810385946239 0.22259574702615023 -0.15279661507054917 0.025848911229090124
leaf_weight=507 1024 1007 182 324 843 340 579 377 98 234 1345 115 137 978 158 118 91 49 68 56 144 40 26 121 50 48 33 46 1105 798
leaf_count=507 1024 1007 182 324 843 340 579 377 98 234 1345 115 137 978 158 118 91 49 68 56 144 40 26 121 50 48 33 46 1105 798
internal_value=0 0.0874914 -0.170394 -0.00113885 -0.251218 -0.308984 0.325534 0.257278 -0.408148 0.0949504 0.143294 0.021395 0.0821938 -0.462838 0.134334 0.0784518 0.155979 0.0917863 -0.433783 0.16571 0.214354 0.0729108 -0.124502 0.241522 0.101869 -0.133465 -0.0953015 -0.130578 -0.168998 -0.000972741
internal_weight=0 7301 3740 5321 2834 2327 1980 1401 1484 3082 2050 705 906 1144 724 566 429 338 1046 355 299 155 350 220 99 2239 1086 1053 1153 1032
internal_count=11041 7301 3740 5321 2834 2327 1980 1401 1484 3082 2050 705 906 1144 724 566 429 338 1046 355 299 155 350 220 99 2239 1086 1053 1153 1032
is_linear=0
shrinkage=0.0694337


Tree=12
num_leaves=31
num_cat=0
split_feature=0 2 3 3 3 1 1 2 3 0 1 3 3 1 2 3 1 3 1 2 3 1 3 1 3 3 3 3 1 0
split_gain=29579.9 27699.5 13757.7 12165.1 7671.52 6935.19 3893.92 4614.59 2578.01 2844.35 2686.33 2365.68 2137 1946.71 1375.17 1294.12 1896.84 868.44 1584.19 809.93 1103.07 1226.44 584.812 533.42 7390.11 1136.14 1121.94 500.119 1686.17 477.514
threshold=-90.225258156764497 389.7890284116408 1799.5394523454211 2399.648312580694 5.1894441149462578 28.359991896503271 23.135232725471923 105.45963425689793 6500.2545020156786 -81.080293581553462 32.706867613141291 11.192315259183227 1000.8622535412171 43.276496326033218 300.95955822865182 2999.5317692468602 53.024667493120425 2599.4447298110144 48.302089293035529 4400.7645906550724 4001.4499071848854 37.393111814563404 4499.8002323082019 27.331272518997551 1401.0472836273073 1200.9030856766296 1099.1760368712623 3499.998252457638 38.426391267552383 -74.668735563422487
decision_type=2 2 2 2 2 2 2 2 2 2 2 2 2 2 2 2 2 2 2 2 2 2 2 2 2 2 2 2 2 2
left_child=2 6 4 23 -1 -6 7 -2 9 10 22 -7 14 27 -13 16 17 -15 -19 20 21 -12 -5 24 25 -3 -25 -4 -29 -11
right_child=1 3 13 8 5 11 -8 -9 -10 29 19 12 -14 15 -16 -17 -18 18 -20 -21 -22 -23 -24 26 -26 -27 -28 28 -30 -31
leaf_value=0.011290504606658387 0.16214075936027053 -0.13712809783913943 -0.16709693637221065 -0.14179050226484632 -0.12434844478506708 -0.2075898840868261 0.45502006873201517 0.4470231493907203 -0.00091916431566314957 0.24535348773984975 -0.06187240742567264 -0.70423530594193762 -0.11417753979646271 -0.13734022722175337 -0.42203724478083693 0.33310319013495265 0.26223564326517107 -0.14260618031534372 0.31510728345071803 -0.082878481401504486 0.33723166710627611 0.35261870887586599 0.18738102452294689 -0.48188073660551928 0.90302091571240117 0.20779979546423116 -0.14220704184167576 -0.15748834727271108 0.40101764639483861 0.15789507329331065
leaf_weight=512 1024 1007 138 324 843 335 579 377 1032 526 107 98 104 146 978 141 190 66 76 56 144 48 26 48 33 46 1105 76 37 819
leaf_count=512 1024 1007 138 324 843 335 579 377 1032 526 107 98 104 146 978 141 190 66 76 56 144 48 26 48 33 46 1105 76 37 819
internal_value=0 0.0814662 -0.158608 -0.00102495 -0.23191 -0.284769 0.303027 0.239491 0.0883959 0.133416 0.0200275 -0.373606 -0.42012 0.0829396 -0.449223 0.149054 0.0931378 -0.0187671 0.10192 0.154418 0.199816 0.0680885 -0.115797 -0.124175 -0.0885215 -0.121488 -0.157359 -0.0791701 0.0274635 0.192574
internal_weight=0 7301 3740 5321 2870 2358 1980 1401 3082 2050 705 1515 1180 870 1076 619 478 288 142 355 299 155 350 2239 1086 1053 1153 251 113 1345
internal_count=11041 7301 3740 5321 2870 2358 1980 1401 3082 2050 705 1515 1180 870 1076 619 478 288 142 355 299 155 350 2239 1086 1053 1153 251 113 1345
is_linear=0
shrinkage=0.0694337


Tree=13
num_leaves=31
num_cat=0
split_feature=0 2 2 3 2 1 1 2 3 2 0 1 1 2 3 1 3 1 2 2 3 1 0 3 1 1 0 0 2 3
split_gain=25654.5 24701.2 11681.9 10903.7 6973.4 5881.92 3278.51 4287.62 2270.96 2192.14 2515.09 2589.89 1706.77 1376.44 1270.03 1680.82 1217.47 2200.01 882.611 720.805 870.143 1514.2 580.148 514.527 505.875 473.57 989.08 514.435 612.59 464.892
threshold=-90.745705560632004 389.7890284116408 1201.491436628505 2399.648312580694 4.1204036089383917 40.317392005740103 23.135232725471923 105.45963425689793 11.192315259183227 6200.653005660889 -81.080293581553462 32.706867613141291 42.277889442030194 300.95955822865182 3099.1035908739004 57.045481424219979 2199.8477863227567 49.629630546727661 901.96935020647072 4400.7645906550724 4001.4499071848854 37.769707074172338 -77.684311204043354 4499.8002323082019 27.984921925737677 30.179446036063862 -59.241121891004973 -78.827947560512868 2399.932030334503 2800.6108296698012
decision_type=2 2 2 2 2 2 2 2 2 2 2 2 2 2 2 2 2 2 2 2 2 2 2 2 2 2 2 2 2 2
left_child=2 6 4 22 -1 -6 7 -2 -7 10 11 23 -4 -10 15 16 -14 -18 -15 20 21 -13 24 -5 -3 27 -27 28 -12 -29
right_child=1 3 12 9 5 8 -8 -9 13 -11 25 19 14 18 -16 -17 17 -19 -20 -21 -22 -23 -24 -25 -26 26 -28 29 -30 -31
leaf_value=0.01320829997241316 0.15090523192195721 -0.11912758537661065 -0.12042657420380443 -0.13252170898626001 -0.12143688209959499 -0.19430132577468565 0.42353787588676728 0.42443814593043006 -0.65634003455383461 -0.00089005250630035484 0.22245589556010714 -0.063711247795429193 -0.17125016722355016 -0.39377220216739878 0.30935131143974848 0.34291669100984351 -0.081118712130520687 0.26958781766071271 -0.12360323782682668 -0.077327234748928719 0.3141452481152171 0.3543805610345872 -0.10571662502382699 0.17532173605890122 -0.33096355486518042 0.32101096876389817 0.14630912019187822 -0.077699158561283177 -0.15524245263673808 0.1753686061586649
leaf_weight=507 1024 121 173 345 821 340 579 381 98 1032 30 117 118 958 138 91 179 162 67 56 144 62 2047 26 110 282 378 35 56 564
leaf_count=507 1024 121 173 345 821 340 579 381 98 1032 30 117 118 958 138 91 179 162 67 56 144 62 2047 26 110 282 378 35 56 564
internal_value=0 0.0745441 -0.150359 -0.0023606 -0.219314 -0.270985 0.283946 0.225739 -0.354479 0.0817522 0.122522 0.0202429 0.0729104 -0.402347 0.122041 0.073691 0.0185753 0.0855011 -0.376597 0.147743 0.187647 0.0823262 -0.117883 -0.109544 -0.222921 0.179283 0.222032 0.137251 -0.0190088 0.16002
internal_weight=0 7389 3652 5405 2791 2284 1984 1405 1463 3127 2095 750 861 1123 688 550 459 341 1025 379 323 179 2278 371 231 1345 660 685 86 599
internal_count=11041 7389 3652 5405 2791 2284 1984 1405 1463 3127 2095 750 861 1123 688 550 459 341 1025 379 323 179 2278 371 231 1345 660 685 86 599
is_linear=0
shrinkage=0.0694337


Tree=14
num_leaves=31
num_cat=0
split_feature=0 2 2 3 3 1 1 0 3 0 1 3 1 2 3 1 3 1 2 2 3 1 1 0 1 2 2 3 0 3
split_gain=22232.5 21402.1 10129.1 9452.48 6047.61 5346.51 2838.54 3761.38 1902.4 2177.26 2244.8 1598.06 1481.48 1197.99 1105.47 1537.12 1013.07 1990.2 760.85 627.296 758.94 1350.7 517.914 505.327 472.996 492.527 701.105 464.545 460.394 537.07
threshold=-90.745705560632004 389.7890284116408 1201.491436628505 2399.648312580694 5.739178258738372 40.317392005740103 23.135232725471923 -82.530227706475969 6500.2545020156786 -81.080293581553462 32.706867613141291 11.192315259183227 42.277889442030194 300.95955822865182 2999.5317692468602 56.336367543601824 2199.8477863227567 49.629630546727661 901.96935020647072 4400.7645906550724 4099.9690206828482 37.393111814563404 104.16135513999568 -84.093634918469149 28.359991896503271 599.24536955896099 1101.2540259779551 8.7911678442201673 -72.588093093647146 12099.591173229992
decision_type=2 2 2 2 2 2 2 2 2 2 2 2 2 2 2 2 2 2 2 2 2 2 2 2 2 2 2 2 2 2
left_child=2 6 4 23 22 -6 7 -2 9 10 -5 27 -4 -13 15 16 -14 -18 -15 20 21 -12 -1 24 -3 -26 -27 -7 29 -10
right_child=1 3 12 8 5 11 -8 -9 28 -11 19 13 14 18 -16 -17 17 -19 -20 -21 -22 -23 -24 -25 25 26 -28 -29 -30 -31
leaf_value=0.02035421902204473 0.41219667861288123 -0.11979587205350777 -0.11216288262547357 -0.10188296771407976 -0.11302607965612291 -0.24038042179368996 0.39423389374307821 0.14551144679629968 -0.25636412031255995 0.16692371728806898 -0.055859931983588899 -0.6117021480448197 -0.17489458149231885 -0.36648956312428849 0.27351135621586686 0.29681671416602484 -0.099098586274047981 0.24925444443840064 -0.11527592503110499 -0.072147813189369525 0.3007641313910665 0.32547952548732934 -0.24186304088677035 -0.098566358386569963 -0.05216933109013807 -0.61234543079367976 -0.13732211925930535 -0.036909086538480171 0.024095932686181282 -0.020070195951010457
leaf_weight=514 337 132 173 371 821 220 579 1068 63 1345 121 98 110 958 159 107 162 150 67 56 134 68 37 2054 25 39 28 76 798 171
leaf_count=514 337 132 173 371 821 220 579 1068 63 1345 121 98 110 958 159 107 162 150 67 56 134 68 37 2054 25 39 28 76 798 171
internal_value=0 0.0693999 -0.139967 -0.00218236 -0.204177 -0.254827 0.264317 0.210134 0.0761305 0.114111 0.0189261 -0.336442 0.0679218 -0.374584 0.113705 0.0644098 0.00384023 0.0682496 -0.350535 0.137644 0.174883 0.0822725 0.00153789 -0.109745 -0.209505 -0.330585 -0.42682 -0.18945 -0.000843213 -0.0862449
internal_weight=0 7389 3652 5405 2791 2240 1984 1405 3127 2095 750 1419 861 1123 688 529 422 312 1025 379 323 189 551 2278 224 92 67 296 1032 234
internal_count=11041 7389 3652 5405 2791 2240 1984 1405 3127 2095 750 1419 861 1123 688 529 422 312 1025 379 323 189 551 2278 224 92 67 296 1032 234
is_linear=0
shrinkage=0.0694337


Tree=15
num_leaves=31
num_cat=0
split_feature=0 2 2 3 2 1 1 0 3 2 0 1 1 2 3 1 3 1 2 1 0 2 1 3 3 3 2 2 0 3
split_gain=19265.4 18550.8 8783.72 8194.32 5274.7 4431.4 2457.54 3328.95 1680.3 1651.37 1924.32 2134.78 1300.29 1042.53 998.33 1313.91 898.64 1756.18 655.734 487.2 888.994 663.892 480.483 6446.71 991.01 928.027 833.119 450.673 417.531 708.632
threshold=-90.745705560632004 389.7890284116408 1201.491436628505 2399.648312580694 4.1204036089383917 40.317392005740103 23.539590064618597 -82.530227706475969 11.192315259183227 6200.653005660889 -83.593594532493043 35.40895570012281 43.276496326033218 300.95955822865182 2900.9847515778511 57.045481424219979 2199.8477863227567 50.468899240903106 901.96935020647072 30.179446036063862 -78.827947560512868 3499.5585003375886 27.331272518997551 1401.0472836273073 1200.9030856766296 1099.1760368712623 599.24536955896099 4400.7645906550724 -59.241121891004973 4401.5407228620506
decision_type=2 2 2 2 2 2 2 2 2 2 2 2 2 2 2 2 2 2 2 2 2 2 2 2 2 2 2 2 2 2
left_child=2 6 4 22 -1 -6 7 -2 -7 10 11 -5 -4 -10 15 16 -14 -18 -15 20 21 -12 23 24 -3 26 -24 -13 29 -21
right_child=1 3 12 9 5 8 -8 -9 13 -11 19 27 14 18 -16 -17 17 -19 -20 28 -22 -23 25 -25 -26 -27 -28 -29 -30 -31
leaf_value=0.012062744908067365 0.3825364228461966 -0.11342806857819124 -0.08770623370158713 -0.10748368884292261 -0.10519782173189593 -0.16954843115738308 0.36905738640822044 0.13495785835556415 -0.57010007733700396 -0.00085253158938847044 0.11273903808917887 0.24782521062640331 -0.14980925019461716 -0.3410971861260429 0.26839797065305804 0.29947670165246976 -0.075895460853453181 0.26087608935335099 -0.10750962451539862 0.064626591948953413 0.13735812827718633 -0.20245231660171911 -0.048821653416384322 0.85754968150267541 0.20846704125696019 -0.11742220589003123 -0.56480427411454337 -0.0028474980052144556 0.12480804794562043 0.27331338532368799
leaf_weight=507 349 1026 206 351 821 340 565 1070 98 1032 55 135 118 958 149 91 164 133 67 106 599 71 25 33 46 1106 42 44 378 356
leaf_count=507 349 1026 206 351 821 340 565 1070 98 1032 55 135 118 958 149 91 164 133 67 106 599 71 25 33 46 1106 42 44 378 356
internal_value=0 0.0645781 -0.130318 -0.00206289 -0.190113 -0.235053 0.246047 0.19646 -0.307534 0.0708494 0.106235 -0.00773171 0.0632605 -0.34874 0.111183 0.0635814 0.0101371 0.074973 -0.326277 0.144924 0.102059 -0.06364 -0.102214 -0.0687577 -0.0990498 -0.133379 -0.382459 0.185723 0.181335 0.226379
internal_weight=0 7389 3652 5405 2791 2284 1984 1419 1463 3127 2095 530 861 1123 655 506 415 297 1025 1565 725 126 2278 1105 1072 1173 67 179 840 462
internal_count=11041 7389 3652 5405 2791 2284 1984 1419 1463 3127 2095 530 861 1123 655 506 415 297 1025 1565 725 126 2278 1105 1072 1173 67 179 840 462
is_linear=0
shrinkage=0.0694337


Tree=16
num_leaves=31
num_cat=0
split_feature=0 2 2 3 3 1 1 2 3 0 1 3 1 2 3 1 3 1 2 3 1 1 3 3 3 2 1 0 2 3
split_gain=16697.6 16071.8 7616.64 7098.25 4595.66 3868.83 2127.55 2915.82 1432.45 1667.98 1850.78 1410.71 1132.61 907.1 864.444 1161.51 721.182 1466.07 564.999 473.395 953.94 427.831 6557.85 1079.2 739.233 589.226 422.437 770.556 590.999 401.58
threshold=-90.745705560632004 389.7890284116408 1201.491436628505 2399.648312580694 5.1894441149462578 40.317392005740103 23.539590064618597 105.45963425689793 6500.2545020156786 -83.593594532493043 35.40895570012281 11.192315259183227 42.277889442030194 300.95955822865182 3099.1035908739004 47.656711999602919 2499.8549207075243 56.336367543601824 901.96935020647072 2199.8477863227567 52.30669596941447 26.383712215802024 1200.9030856766296 1401.0472836273073 1099.1760368712623 599.24536955896099 30.179446036063862 -78.827947560512868 2399.932030334503 2800.6108296698012
decision_type=2 2 2 2 2 2 2 2 2 2 2 2 2 2 2 2 2 2 2 2 2 2 2 2 2 2 2 2 2 2
left_child=2 6 4 21 -1 -6 7 -2 9 10 -5 -7 -4 -13 15 -14 17 19 -15 -17 -21 22 -3 -24 25 -23 27 28 -11 -29
right_child=1 3 12 8 5 11 -8 -9 -10 26 -12 13 14 18 -16 16 -18 -19 -20 20 -22 24 23 -25 -26 -27 -28 29 -30 -31
leaf_value=0.010568461966672889 0.1204366812262555 -0.10651086172947676 -0.09844782988737813 -0.10006405388552495 -0.097911750760128716 -0.15934805857350801 0.34352503998312128 0.34334103321925319 -0.00080252891395370682 0.19293113194182276 0.17293998309376674 -0.53132734978334428 -0.12867772770714331 -0.31746416575285846 0.25358239396944976 -0.15276186581182458 0.25308624334150887 0.25867768006956904 -0.10026655693452045 -0.13883896347007366 0.30986782175901695 -0.045688803172385807 0.30199350147969062 0.90559442896201225 -0.10906632671576315 -0.47114281442029438 0.16886776844143794 -0.092560756050139303 -0.14596981945005144 0.14218537796079084
leaf_weight=512 1025 1007 173 351 821 335 565 394 1032 31 179 98 121 958 138 110 124 107 67 49 39 25 34 30 1133 49 840 35 95 564
leaf_count=512 1025 1007 173 351 821 335 565 394 1032 31 179 98 121 958 138 110 124 107 67 49 39 25 34 30 1133 49 840 35 95 564
internal_value=0 0.0601319 -0.121312 -0.0018941 -0.176994 -0.219194 0.229041 0.182881 0.0659641 0.0989214 -0.00715807 -0.287112 0.0589363 -0.32468 0.098988 0.0590235 0.112808 0.0537896 -0.303698 -0.0574084 0.0602349 -0.0951097 -0.0625748 0.607419 -0.123651 -0.335256 0.134941 0.0949816 -0.0592081 0.127853
internal_weight=0 7389 3652 5405 2791 2279 1984 1419 3127 2095 530 1458 861 1123 688 550 429 305 1025 198 88 2278 1071 64 1207 74 1565 725 126 599
internal_count=11041 7389 3652 5405 2791 2279 1984 1419 3127 2095 530 1458 861 1123 688 550 429 305 1025 198 88 2278 1071 64 1207 74 1565 725 126 599
is_linear=0
shrinkage=0.0694337


Tree=17
num_leaves=31
num_cat=0
split_feature=0 2 3 3 2 1 1 0 2 0 1 3 1 2 3 1 2 3 1 2 3 1 2 2 0 2 3 3 1 3
split_gain=14471 13924.7 6607.93 6145.74 3936.31 3178.3 1841.8 2550.55 1243.33 1468.62 1441.27 1118.39 1072.04 1033.34 693.954 937.125 680.36 549.57 832.888 525.338 577.933 1036.01 411.487 407.426 399.593 490.921 473.508 465.048 373.977 5836.03
threshold=-90.745705560632004 389.7890284116408 1799.5394523454211 2399.648312580694 4.1204036089383917 40.317392005740103 23.539590064618597 -83.096621275816744 6200.653005660889 -81.461859330288647 32.706867613141291 11.192315259183227 43.84960549056543 901.96935020647072 2999.5317692468602 53.024667493120425 300.95955822865182 2599.4447298110144 48.302089293035529 4400.7645906550724 4099.9690206828482 37.393111814563404 4900.6238837200135 155.86594583323398 -72.588093093647146 10200.617959346173 12200.003102898829 13798.405595652015 26.186475218474456 1200.9030856766296
decision_type=2 2 2 2 2 2 2 2 2 2 2 2 2 2 2 2 2 2 2 2 2 2 2 2 2 2 2 2 2 2
left_child=2 6 4 28 -1 -6 7 -2 9 10 -5 -7 -4 16 15 17 -13 -14 -19 20 21 -12 -21 -9 26 -26 -10 -28 29 -3
right_child=1 3 12 8 5 11 -8 23 24 -11 19 13 14 -15 -16 -17 -18 18 -20 22 -22 -23 -24 -25 25 -27 27 -29 -30 -31
leaf_value=0.011471113432186975 0.33956658689150421 -0.099218629423933558 -0.067802849312200403 -0.087042040501312201 -0.091130317419903004 -0.14846997754936395 0.31975911079758457 0.10978544001798007 -0.1874983739276701 0.13426409874382547 -0.060736621997857211 -0.49519158384197598 -0.1051504279074402 -0.080024603681992393 0.25122609658603179 0.18642303398299354 -0.29546854195198236 -0.10570615764762455 0.23736761139653734 -0.25808253348395072 0.25865454587285314 0.27518204028586796 0.10359786353814644 0.34558483507112581 0.25650359719604693 0.0094650724278209676 0.097153281927269242 -0.18411538852993109 -0.1150823863329334 0.57916307819832691
leaf_weight=507 329 1004 227 357 821 340 565 1054 106 1372 117 98 146 103 128 190 958 58 76 29 125 68 27 36 39 759 89 39 1211 63
leaf_count=507 329 1004 227 357 821 340 565 1054 106 1372 117 98 146 103 128 190 958 58 76 29 125 68 27 36 39 759 89 39 1211 63
internal_value=0 0.055988 -0.112925 -0.00174386 -0.163373 -0.201649 0.213211 0.17024 0.0613947 0.0920995 0.0116452 -0.261833 0.0596671 -0.294589 0.108468 0.0682253 -0.315124 -0.0120142 0.087987 0.10842 0.143913 0.063286 -0.0826135 0.118398 -0.000794806 0.0224254 -0.0803708 0.00830048 -0.0884825 -0.0579351
internal_weight=0 7389 3652 5405 2827 2320 1984 1419 3127 2095 723 1499 825 1159 598 470 1056 280 134 366 310 185 56 1090 1032 798 234 128 2278 1067
internal_count=11041 7389 3652 5405 2827 2320 1984 1419 3127 2095 723 1499 825 1159 598 470 1056 280 134 366 310 185 56 1090 1032 798 234 128 2278 1067
is_linear=0
shrinkage=0.0694337


Tree=18
num_leaves=31
num_cat=0
split_feature=0 2 2 3 3 1 1 0 2 0 1 3 1 2 3 1 3 1 2 3 1 2 1 0 2 0 3 3 1 0
split_gain=12544.4 12067.8 5732.85 5321.78 3494.07 2919.9 1593.24 2209.28 1076.96 1280.1 1420.97 1036.82 875.101 685.924 672.388 919.745 708.236 1040.63 414.537 408.886 954.204 400.032 374.538 638.308 507.598 383.047 561.83 368.173 366.71 364.412
threshold=-90.745705560632004 389.7890284116408 1201.491436628505 2399.648312580694 5.1894441149462578 40.317392005740103 23.539590064618597 -83.096621275816744 6200.653005660889 -83.593594532493043 36.396467477737765 11.192315259183227 42.277889442030194 300.95955822865182 3099.1035908739004 57.045481424219979 2001.8405573462105 47.656711999602919 901.96935020647072 2499.8549207075243 53.024667493120425 4400.7645906550724 30.179446036063862 -78.827947560512868 3799.225700372665 -59.241121891004973 4401.5407228620506 8.7911678442201673 32.945699422631655 -77.684311204043354
decision_type=2 2 2 2 2 2 2 2 2 2 2 2 2 2 2 2 2 2 2 2 2 2 2 2 2 2 2 2 2 2
left_child=2 6 4 29 -1 -6 7 -2 9 10 -5 27 -4 -13 15 16 -14 -18 -15 20 -19 -12 23 24 -11 26 28 -7 -24 -3
right_child=1 3 12 8 5 11 -8 -9 -10 22 21 13 14 18 -16 -17 17 19 -20 -21 -22 -23 25 -25 -26 -27 -28 -29 -30 -31
leaf_value=0.010059641238139206 0.31613529603223922 -0.16554169490660528 -0.087039681927277041 -0.082575961934868936 -0.084818571243205007 -0.17866099786960868 0.29763734960852095 0.11025025040934271 -0.00071281598131503455 0.091085461036840967 0.2295105889098554 -0.46151343345117185 -0.16767075203149731 -0.27499689134546473 0.22284097052645696 0.2503091997896339 -0.11332681844972434 -0.10539517188323494 -0.088120100408056651 0.22155782809202229 0.27498952173279145 -0.010643282901220991 -0.1354715744714467 0.10967311588572048 -0.18380911739343928 0.095409946432040441 0.23388651371446464 -0.0021393510509682169 0.13536012136787401 -0.072666269559965205
leaf_weight=512 329 231 173 369 821 259 565 1090 1032 56 117 98 85 958 138 91 121 79 67 124 50 44 33 599 70 378 356 76 73 2047
leaf_count=512 329 231 173 369 821 259 565 1090 1032 56 117 98 85 958 138 91 121 79 67 124 50 44 33 599 70 378 356 76 73 2047
internal_value=0 0.0521437 -0.105124 -0.00159841 -0.153434 -0.190232 0.198508 0.158519 0.0571528 0.0857296 -0.00715452 -0.249245 0.0512296 -0.281487 0.0864551 0.0511565 0.0102834 0.0519754 -0.263185 0.132125 0.0424475 0.163293 0.117287 0.0797236 -0.060505 0.149187 0.192121 -0.139489 0.0481458 -0.0823161
internal_weight=0 7389 3652 5405 2791 2279 1984 1419 3127 2095 530 1458 861 1123 688 550 459 374 1025 253 129 161 1565 725 126 840 462 335 106 2278
internal_count=11041 7389 3652 5405 2791 2279 1984 1419 3127 2095 530 1458 861 1123 688 550 459 374 1025 253 129 161 1565 725 126 840 462 335 106 2278
is_linear=0
shrinkage=0.0694337


Tree=19
num_leaves=31
num_cat=0
split_feature=0 2 2 3 2 1 1 2 2 3 2 3 1 0 1 3 1 2 3 1 3 1 1 1 3 0 1 1 3 0
split_gain=10871.6 10457.2 4972.31 4629.83 3061.05 2526.88 1379.03 1919.62 1067.97 900.24 784.049 1069.4 1044.16 954.685 763.842 605.077 787.811 596.513 555.458 869.287 545.34 1077.59 472.285 463.673 831.512 426.432 377.837 366.165 2387.06 3172.62
threshold=-90.745705560632004 389.7890284116408 1201.491436628505 2800.6108296698012 4.1204036089383917 40.317392005740103 23.539590064618597 105.45963425689793 2699.3167194661978 11.192315259183227 6200.653005660889 4598.7219197542945 35.40895570012281 -77.187561776619916 41.377494107369763 3198.9859091568519 46.225298768977126 300.95955822865182 2700.4222199876999 57.045481424219979 2001.8405573462105 51.71716601545657 36.396467477737765 32.706867613141291 4300.5119546132637 -63.1564294813058 29.801398267213852 27.331272518997551 1200.9030856766296 -73.019228907774945
decision_type=2 2 2 2 2 2 2 2 2 2 2 2 2 2 2 2 2 2 2 2 2 2 2 2 2 2 2 2 2 2
left_child=2 6 4 27 -1 -6 7 -2 -5 -7 11 12 13 23 -4 16 -16 -11 19 20 -18 -22 25 -10 -25 26 -13 28 -3 -30
right_child=1 3 14 8 5 9 -8 -9 10 17 -12 22 -14 -15 15 -17 18 -19 -20 -21 21 -23 -24 24 -26 -27 -28 -29 29 -31
leaf_value=0.011063306381427622 0.096843641059286389 -0.085639454502906581 -0.09780255739773687 0.30267560763298335 -0.078943980555919002 -0.13041605583642957 0.27704605208064331 0.2778094370435471 -0.10454706750698878 -0.43012576967174709 -0.00066342200021328197 -0.023333908927713667 0.19431257922933737 0.078011397672043833 -0.11399751808966951 0.22133411516838616 -0.15630304585615429 -0.24497525842893456 0.23159570229148155 0.2333123798398298 -0.090154175291605188 0.22021648437217312 0.057948290771371716 -0.064986373132285266 0.29824474553856939 0.091379938852323372 0.23863727702577495 -0.10218282582291249 -0.035602667010581131 0.60162761924866581
leaf_weight=507 1025 1026 142 80 821 340 565 394 370 98 1032 27 153 412 114 116 85 1025 100 91 117 96 290 100 41 225 318 1174 99 58
leaf_count=507 1025 1026 142 80 821 340 565 394 370 98 1032 27 153 412 114 116 85 1025 100 91 117 96 290 100 41 225 318 1174 99 58
internal_value=0 0.0485438 -0.0978632 -0.00148101 -0.142856 -0.177094 0.184792 0.147566 0.0549746 -0.231843 0.0480235 0.0740572 0.0275868 -0.000194628 0.0477376 0.0769666 0.048194 -0.262072 0.086748 0.04796 -0.00915456 0.0495287 0.131754 -0.063715 0.0419396 0.168597 0.217518 -0.0745603 -0.0468428 0.20322
internal_weight=0 7389 3652 5405 2791 2284 1984 1419 3048 1463 2968 1936 1076 923 861 719 603 1123 489 389 298 213 860 511 141 570 345 2357 1183 157
internal_count=11041 7389 3652 5405 2791 2284 1984 1419 3048 1463 2968 1936 1076 923 861 719 603 1123 489 389 298 213 860 511 141 570 345 2357 1183 157
is_linear=0
shrinkage=0.0694337


Tree=20
num_leaves=31
num_cat=0
split_feature=0 2 3 3 3 1 1 0 2 1 0 3 3 1 1 2 3 3 1 2 3 1 3 1 2 3 3 3 0 3
split_gain=9424.11 9057.59 4312.29 4012.06 2674.23 2323.45 1193.57 1687.44 928.297 683.842 1131.16 734.333 687.053 975.752 655.436 648.603 630.139 532.819 673.506 509.882 499.404 782.287 407.187 953.199 398.476 706.448 386.427 378.973 371.829 369.638
threshold=-90.745705560632004 389.7890284116408 1599.4995656457324 2800.6108296698012 5.739178258738372 40.317392005740103 23.539590064618597 -83.096621275816744 2699.3167194661978 31.470195823289057 -79.696889054240401 12299.793896525453 4102.2443587126827 36.697902910295802 41.377494107369763 4498.8548822471921 11.192315259183227 3198.9859091568519 46.225298768977126 300.95955822865182 2698.616716512633 57.045481424219979 2001.8405573462105 51.71716601545657 6200.653005660889 12200.003102898829 5000.7517578182133 8.155354793256862 -98.790287017929174 3501.0724146554135
decision_type=2 2 2 2 2 2 2 2 2 2 2 2 2 2 2 2 2 2 2 2 2 2 2 2 2 2 2 2 2 2
left_child=2 6 4 -3 28 -6 7 -2 -5 10 -10 12 13 29 -4 -14 27 18 -16 -18 21 22 -20 -24 -12 -26 -17 -7 -1 -11
right_child=1 3 14 8 5 16 -8 -9 9 11 24 -13 15 -15 17 26 19 -19 20 -21 -22 -23 23 -25 25 -27 -28 -29 -30 -31
leaf_value=0.017597036190087879 0.27515101164431643 -0.069366625690271341 -0.091108450665126003 0.28218504965005176 -0.073476268652580043 -0.19261181723002677 0.25787929814264254 0.095150073447064012 -0.087352731546931101 0.080231543976340289 0.087070951729424056 -0.0025329068820956818 0.21797097404012197 0.21511745444597113 -0.10622213625823755 -0.15566041341911158 -0.40087274171023918 0.20623306876554853 -0.13925476253050836 -0.22926590130081306 0.20162801630784183 0.21110821830770973 -0.098750104629936372 0.20795246393326042 -0.34184456450008383 0.022494541630064091 0.10408779255090618 -0.030063243197555961 -0.22959014595497251 -0.13055077015903466
leaf_weight=522 329 2357 142 80 821 176 565 1090 403 53 590 389 318 79 114 27 98 116 90 1018 120 93 107 86 25 492 452 120 29 140
leaf_count=522 329 2357 142 80 821 176 565 1090 403 53 590 389 318 79 114 27 98 116 90 1018 120 93 107 86 25 492 452 120 29 140
internal_value=0 0.0452195 -0.0910926 -0.00133475 -0.133217 -0.166995 0.172022 0.137367 0.0512169 0.0447306 0.0117893 0.0786396 0.10832 0.0120687 0.0437725 0.140793 -0.221038 0.0706226 0.0438894 -0.245229 0.0791044 0.0385684 -0.0185122 0.0375969 0.0481643 0.00319415 0.0884122 -0.128073 0.00340737 -0.0713646
internal_weight=0 7389 3652 5405 2784 2233 1984 1419 3048 2968 1510 1458 1069 272 868 797 1412 726 610 1116 496 376 283 193 1107 517 479 296 551 193
internal_count=11041 7389 3652 5405 2784 2233 1984 1419 3048 2968 1510 1458 1069 272 868 797 1412 726 610 1116 496 376 283 193 1107 517 479 296 551 193
is_linear=0
shrinkage=0.0694337


Tree=21
num_leaves=31
num_cat=0
split_feature=0 2 2 3 2 1 1 0 2 0 1 1 3 3 1 2 3 1 3 1 2 3 1 2 2 3 0 0 1 3
split_gain=8169.49 7848.41 3740.6 3481.41 2322.51 1983.53 1032.93 1465.91 697.965 867.484 818.3 576.196 545.899 455.357 594.687 451.137 424.967 662.067 416.231 777.847 393.112 372.398 696.141 355.24 345.71 337.203 377.543 310.032 310.175 350.043
threshold=-90.745705560632004 389.7890284116408 1201.491436628505 2399.648312580694 4.730309991819559 40.317392005740103 23.539590064618597 -82.530227706475969 6200.653005660889 -81.080293581553462 32.706867613141291 41.377494107369763 11.192315259183227 3198.9859091568519 46.225298768977126 300.95955822865182 2700.4222199876999 57.045481424219979 1998.9227409810476 51.71716601545657 4400.7645906550724 4001.4499071848854 38.742454308075843 901.96935020647072 4900.6238837200135 8.155354793256862 -100.0312137889543 -84.093634918469149 28.359991896503271 599.66818269560338
decision_type=2 2 2 2 2 2 2 2 2 2 2 2 2 2 2 2 2 2 2 2 2 2 2 2 2 2 2 2 2 2
left_child=2 6 4 27 -1 -6 7 -2 9 10 -5 -4 25 14 -13 -14 17 18 -16 -20 21 22 -12 -17 -22 26 -7 28 -3 -30
right_child=1 3 11 8 5 12 -8 -9 -10 -11 20 13 15 -15 16 23 -18 -19 19 -21 24 -23 -24 -25 -26 -27 -28 -29 29 -31
leaf_value=0.0045107146086356062 0.25144729643818492 -0.072193223296632233 -0.084872523714701942 -0.063709736795759336 -0.068387255658626647 0.062554316310457631 0.2400385547785816 0.086973706954932603 -0.00026433136439035505 0.10262399646780418 -0.046514304320019031 -0.098977088308933842 -0.37360924976822124 0.1921623286276983 -0.15193133773413067 -0.22308567928683251 0.20211992196811873 0.20313476938740116 -0.080925630745920643 0.17457868419986564 -0.24519853115141735 0.19332456903527859 0.24812832456253059 -0.05166175149845411 0.085973988412722871 -0.025256609649970237 -0.21705517729968307 -0.05778326200643083 -0.0099911216731635513 -0.32294275063211197
leaf_weight=544 349 132 142 371 821 25 565 1070 1032 1345 126 114 98 116 72 958 100 91 121 105 29 144 53 67 27 119 159 2054 25 67
leaf_count=544 349 132 142 371 821 25 565 1070 1032 1345 126 114 98 116 72 958 100 91 121 105 29 144 53 67 27 119 159 2054 25 67
internal_value=0 0.042102 -0.0848127 -0.00123088 -0.12384 -0.154982 0.160138 0.127877 0.0462804 0.0692856 0.00910502 0.0414493 -0.204522 0.0668568 0.0418376 -0.227134 0.0753661 0.0413597 -0.00839798 0.0373712 0.0808887 0.110563 0.0413983 -0.212209 -0.0845416 -0.119069 -0.177674 -0.0665238 -0.144498 -0.242189
internal_weight=0 7389 3652 5405 2791 2247 1984 1419 3127 2095 750 861 1426 719 603 1123 489 389 298 226 379 323 179 1025 56 303 184 2278 224 92
internal_count=11041 7389 3652 5405 2791 2247 1984 1419 3127 2095 750 861 1426 719 603 1123 489 389 298 226 379 323 179 1025 56 303 184 2278 224 92
is_linear=0
shrinkage=0.0694337


Tree=22
num_leaves=31
num_cat=0
split_feature=0 2 2 3 2 1 1 2 2 3 1 0 3 3 1 1 2 3 1 2 1 3 1 0 3 1 1 3 2 3
split_gain=7078.76 6802.84 3243.99 3038.19 2025.86 1581.79 893.853 1288.01 782.007 675.801 563.148 879.942 536.138 640.594 773.266 500.396 444.207 395.067 516.612 392.099 372.222 372.142 615.682 346.129 328.563 4796.01 623.26 579.95 406.195 325.714
threshold=-90.745705560632004 389.7890284116408 1201.491436628505 2800.6108296698012 3.6184512437247669 40.317392005740103 23.539590064618597 105.45963425689793 2699.3167194661978 11.192315259183227 30.893517707885703 -79.696889054240401 13498.869009265005 4102.2443587126827 38.742454308075843 41.377494107369763 4498.8548822471921 3198.9859091568519 46.225298768977126 300.95955822865182 102.21367114729355 2698.616716512633 57.045481424219979 -96.363609060694515 1200.9030856766296 20.723295881810056 27.798507462735071 1401.0472836273073 599.24536955896099 2001.8405573462105
decision_type=2 2 2 2 2 2 2 2 2 2 2 2 2 2 2 2 2 2 2 2 2 2 2 2 2 2 2 2 2 2
left_child=2 6 4 24 -1 -6 7 -2 -5 20 11 -10 13 14 -12 -4 -15 18 -17 -11 -7 22 29 -22 26 27 -3 -26 -28 -20
right_child=1 3 15 8 5 9 -8 -9 10 19 12 -13 -14 16 -16 17 -18 -19 21 -21 23 -23 -24 -25 25 -27 28 -29 -30 -31
leaf_value=0.016372894986859992 0.077445872681609629 -0.071444649052692613 -0.079063416308128381 0.2565564740205703 -0.063650709411450984 0.11914936506502113 0.22343207501122112 0.22576744999039483 -0.08864518583131506 -0.34819996602453213 -0.050231638489671764 0.038297917528612939 -0.0023622724762979081 0.18181624381508635 0.22929029136702062 -0.092226199310770321 0.079097877331199107 0.17905159851099708 -0.12846290024602228 -0.19752651173579955 -0.16105565431965679 0.17583229370708359 0.18934125337289429 0 0.2966225089678397 -0.066248528004341375 -0.0090838143604937121 0.78298522775967005 -0.34467701662437034 0.03272988807976044
leaf_weight=466 1025 1037 142 80 821 31 565 394 349 98 246 1048 395 349 57 114 524 116 85 1025 268 120 91 82 28 1169 25 30 68 193
leaf_count=466 1025 1037 142 80 821 31 565 394 349 98 246 1048 395 349 57 114 524 116 85 1025 268 120 91 82 28 1169 25 30 68 193
internal_value=0 0.0391823 -0.0789566 -0.00115841 -0.115302 -0.141775 0.149075 0.119042 0.0445674 -0.184138 0.0386101 0.00635251 0.0671168 0.090594 0.00285692 0.0386132 0.12073 0.0623016 0.0389672 -0.211471 -0.102327 0.0702338 0.0345493 -0.123115 -0.0603653 -0.0351121 -0.0874889 0.569808 -0.258798 -0.0163917
internal_weight=0 7389 3652 5405 2791 2325 1984 1419 3048 1504 2968 1397 1571 1176 303 861 873 719 603 1123 381 489 369 350 2357 1227 1130 58 93 278
internal_count=11041 7389 3652 5405 2791 2325 1984 1419 3048 1504 2968 1397 1571 1176 303 861 873 719 603 1123 381 489 369 350 2357 1227 1130 58 93 278
is_linear=0
shrinkage=0.0694337


Tree=23
num_leaves=31
num_cat=0
split_feature=0 2 3 3 3 1 1 0 2 1 0 3 3 1 2 1 3 3 1 1 2 3 1 3 1 2 3 3 3 1
split_gain=6135.33 5892.62 2817.35 2631.23 1765.42 1521.32 773.448 1122.29 679.799 491.085 777.377 500.393 473.624 667.487 472.848 430.098 396.667 347.191 448.401 333.975 325.429 321.468 493.088 291.664 673.047 291.101 290.457 289.695 286.815 4192.81
threshold=-90.745705560632004 389.7890284116408 1599.4995656457324 2800.6108296698012 5.739178258738372 40.722032486485467 23.539590064618597 -83.096621275816744 2699.3167194661978 31.470195823289057 -79.696889054240401 12299.793896525453 4102.2443587126827 36.697902910295802 4498.8548822471921 41.377494107369763 11.192315259183227 3198.9859091568519 46.846043778087726 79.189119952162386 3100.3008701716694 2698.616716512633 57.045481424219979 2099.3575504799996 51.71716601545657 155.86594583323398 5000.7517578182133 8.7911678442201673 1200.9030856766296 20.723295881810056
decision_type=2 2 2 2 2 2 2 2 2 2 2 2 2 2 2 2 2 2 2 2 2 2 2 2 2 2 2 2 2 2
left_child=2 6 4 28 -1 -6 7 -2 -5 10 -10 12 13 20 -14 -4 27 18 -17 -18 -11 22 23 -20 -25 -9 -16 -7 -3 -30
right_child=1 3 15 8 5 16 -8 25 9 11 -12 -13 14 -15 26 17 19 -19 21 -21 -22 -23 -24 24 -26 -27 -28 -29 29 -31
leaf_value=0.0034000183189025249 0.22323513036028139 -0.081493282273772671 -0.073651912918372114 0.23918808908438591 -0.059383493230532325 -0.14480597389108296 0.20797447507234917 0.069102206792621773 -0.074146598134040273 0.15321309637369299 0.03819627418738436 -0.0022343977891228091 0.18206771281302808 0.17720317248409742 -0.13988451828599147 -0.076132162194127204 -0.18499127734172544 0.16683537920992927 -0.10871028586048034 -0.32386681336522943 -0.097047534258915727 0.17002715532551627 0.17104089201453379 -0.085522927435887353 0.18129831266045654 0.26759476449307001 0.085013448620246096 0.0095233964935278644 0.5330452693209603 -0.06165670355958075
leaf_weight=551 329 1130 142 80 823 220 565 1054 403 27 1107 389 318 79 27 132 1015 116 96 99 166 111 93 94 84 36 452 76 58 1169
leaf_count=551 329 1130 142 80 823 220 565 1054 403 27 1107 389 318 79 27 132 1015 116 96 99 166 111 93 94 84 36 452 76 58 1169
internal_value=0 0.0364995 -0.0734854 -0.00104285 -0.107538 -0.134983 0.138776 0.110817 0.0415078 0.0359478 0.00801571 0.0646816 0.0891839 0.00913897 0.116147 0.03549 -0.178812 0.0572707 0.0356059 -0.198092 -0.0597261 0.0670898 0.0346198 -0.0118558 0.0398667 0.0763389 0.0713612 -0.104689 -0.0561445 -0.0325332
internal_weight=0 7389 3652 5405 2784 2233 1984 1419 3048 2968 1510 1458 1069 272 797 868 1410 726 610 1114 193 478 367 274 178 1090 479 296 2357 1227
internal_count=11041 7389 3652 5405 2784 2233 1984 1419 3048 2968 1510 1458 1069 272 797 868 1410 726 610 1114 193 478 367 274 178 1090 479 296 2357 1227
is_linear=0
shrinkage=0.0694337


Tree=24
num_leaves=31
num_cat=0
split_feature=0 2 3 3 2 1 1 0 3 2 0 1 1 3 1 3 1 3 1 2 1 2 2 0 2 3 1 3 3 0
split_gain=5319.02 5106.59 2467.23 2284.26 1608.81 1317.5 668.613 971.777 595.89 502.242 629.6 525.414 340.805 334.832 345.558 341.298 356.84 433.536 415.437 316.35 311.479 303.607 285.499 274.714 398.602 371.128 317.557 289.549 512.371 265.022
threshold=-90.745705560632004 389.7890284116408 1000.8622535412171 2399.648312580694 3.6184512437247669 40.317392005740103 23.539590064618597 -83.096621275816744 11.192315259183227 6200.653005660889 -81.080293581553462 32.706867613141291 41.377494107369763 3198.9859091568519 46.225298768977126 2698.616716512633 52.30669596941447 1999.4076342134806 57.699247683983891 4400.7645906550724 102.21367114729355 7.4461400666214699 4900.6238837200135 -72.588093093647146 10500.215515772425 12099.591173229992 27.798507462735071 13798.405595652015 12399.978111261289 -100.0312137889543
decision_type=2 2 2 2 2 2 2 2 2 2 2 2 2 2 2 2 2 2 2 2 2 2 2 2 2 2 2 2 2 2
left_child=2 6 4 -3 -1 -6 7 -2 20 10 11 -5 -4 14 -14 16 -16 18 -18 -13 -7 29 -21 25 -25 26 -11 28 -27 -22
right_child=1 3 12 9 5 8 -8 -9 -10 23 -12 19 13 -15 15 -17 17 -19 -20 22 21 -23 -24 24 -26 27 -28 -29 -30 -31
leaf_value=0.015269835391363696 0.20783112129021275 -0.05383568717221824 -0.068254580521088806 -0.052533331944174061 -0.055175735047720942 0.11241374452991285 0.19358627005246282 0.071095578823271624 -0.19315816561620261 -0.064827060215947016 0.085455379200427756 0.090042143722493917 -0.0807430502174072 0.15545264135922474 -0.07478610214685262 0.15348187960888185 -0.084117429205577923 0.16386315917644165 0.12613829389237685 -0.23071950386634898 0.022305149186291357 -0.0021666007393054041 0.069835543885297696 0.21346826862713411 0.0047521575009629134 -0.074234025937899711 -0.38771412693117496 -0.17484398495627398 0.19957337244591425 -0.17711006721790945
leaf_weight=466 329 2278 143 371 820 31 565 1090 1056 37 1345 323 114 116 128 120 117 120 71 29 35 97 27 45 753 79 26 39 53 218
leaf_count=466 329 2278 143 371 820 31 565 1090 1056 37 1345 323 114 116 128 120 117 120 71 29 35 97 27 45 753 79 26 39 53 218
internal_value=0 0.0340062 -0.0684009 -0.000940033 -0.101733 -0.125974 0.129218 0.103199 -0.166094 0.0375376 0.0570554 0.00575373 0.0290842 0.0471893 0.027718 0.0505447 0.0211519 0.061925 -0.00311199 0.0633328 -0.0899038 -0.108966 -0.0848732 -0.00191756 0.0172993 -0.0679153 -0.209307 -0.0127566 0.0355213 -0.148749
internal_weight=0 7389 3652 5405 2723 2257 1984 1419 1437 3127 2095 750 929 786 670 556 436 308 188 379 381 350 56 1032 798 234 63 171 132 253
internal_count=11041 7389 3652 5405 2723 2257 1984 1419 1437 3127 2095 750 929 786 670 556 436 308 188 379 381 350 56 1032 798 234 63 171 132 253
is_linear=0
shrinkage=0.0694337


Tree=25
num_leaves=31
num_cat=0
split_feature=0 2 3 3 2 1 1 2 2 3 1 0 3 3 1 1 3 1 3 1 3 1 1 3 0 1 3 0 3 3
split_gain=4606.34 4426.52 2138.41 1989.55 1394.35 1140.76 578.407 842.892 572.746 517.019 415.837 598.218 381.766 505.488 595.677 296.007 290.502 300.232 300.674 293.676 366.189 384.124 271.645 286.289 258.269 248.835 1471.23 2184.79 587.369 572.245
threshold=-90.745705560632004 389.7890284116408 1000.8622535412171 2800.6108296698012 3.6184512437247669 40.722032486485467 23.539590064618597 105.45963425689793 2699.3167194661978 11.192315259183227 30.179446036063862 -78.696652596656079 13201.174864801573 4102.2443587126827 38.742454308075843 41.377494107369763 3198.9859091568519 46.225298768977126 2700.4222199876999 51.71716601545657 2001.8405573462105 57.699247683983891 102.21367114729355 8.155354793256862 -100.0312137889543 27.331272518997551 1200.9030856766296 -73.019228907774945 1099.1760368712623 599.66818269560338
decision_type=2 2 2 2 2 2 2 2 2 2 2 2 2 2 2 2 2 2 2 2 2 2 2 2 2 2 2 2 2 2
left_child=2 6 4 25 -1 -6 7 -2 -5 22 11 -10 13 14 -12 -4 17 -17 19 -19 21 -21 -7 24 -24 26 -3 -28 29 -27
right_child=1 3 15 8 5 9 -8 -9 10 -11 12 -13 -14 -15 -16 16 -18 18 -20 20 -22 -23 23 -25 -26 28 27 -29 -30 -31
leaf_value=0.014214239739359927 0.062364250429658478 -0.056497642805560064 -0.063582424189245257 0.21756065223351151 -0.051472269268068291 0.10509279658434884 0.18019347666114402 0.18245907363936112 -0.081916788905619417 -0.17992358342626227 -0.047458839889637408 0.028416451108176873 -0.0045467274441230486 0.096346020325638368 0.19601143170483901 -0.075235842132289385 0.1448465144389125 -0.067826692374280823 0.15523114362170506 -0.073564951481888102 0.15056298781843511 0.11729646967326247 0.020842152942326893 -0.012262318620379945 -0.17759766514348468 0 -0.027604890857139169 0.50090836936253835 -0.058914961840353969 -0.41969749897224673
leaf_weight=466 1025 1026 143 80 822 31 565 394 315 1054 267 935 413 981 57 114 116 123 100 129 123 81 35 120 195 25 99 58 1107 42
leaf_count=466 1025 1026 143 80 822 31 565 394 315 1054 267 935 413 981 57 114 116 123 100 129 123 81 35 120 195 25 99 58 1107 42
internal_value=0 0.0316488 -0.063651 -0.000884655 -0.0946837 -0.117252 0.120294 0.0960716 0.0361104 -0.154661 0.0310026 0.000357466 0.0531516 0.0715495 -0.0030237 0.0270937 0.0439777 0.0258151 0.0471078 0.0223529 0.0564955 0 -0.0836402 -0.101463 -0.146585 -0.0488037 -0.0259836 0.170274 -0.0715361 -0.269107
internal_weight=0 7389 3652 5405 2723 2257 1984 1419 3048 1435 2968 1250 1718 1305 324 929 786 670 556 456 333 210 381 350 230 2357 1183 157 1174 67
internal_count=11041 7389 3652 5405 2723 2257 1984 1419 3048 1435 2968 1250 1718 1305 324 929 786 670 556 456 333 210 381 350 230 2357 1183 157 1174 67
is_linear=0
shrinkage=0.0694337


Tree=26
num_leaves=31
num_cat=0
split_feature=0 2 3 3 2 1 1 0 2 3 1 0 3 3 1 2 1 2 3 1 3 1 3 1 1 2 1 3 2 3
split_gain=3990.11 3836.05 1853.53 1724.51 1208.55 987.544 500.334 742.999 497.919 446.094 360.352 518.445 331.151 437.235 528.144 263.27 257.124 252.579 252.014 260.879 260.996 255.136 317.746 339.405 248.323 241.972 216.515 1278.27 1925.94 513.263
threshold=-90.745705560632004 389.7890284116408 1000.8622535412171 2800.6108296698012 3.6184512437247669 40.317392005740103 23.539590064618597 -83.349048445763927 2699.3167194661978 11.192315259183227 30.179446036063862 -78.696652596656079 13201.174864801573 4102.2443587126827 36.697902910295802 3001.910525835845 41.377494107369763 300.95955822865182 3198.9859091568519 46.225298768977126 2700.4222199876999 51.71716601545657 2001.8405573462105 57.045481424219979 106.22435426452213 155.86594583323398 27.331272518997551 1200.9030856766296 1099.7729738697756 1099.1760368712623
decision_type=2 2 2 2 2 2 2 2 2 2 2 2 2 2 2 2 2 2 2 2 2 2 2 2 2 2 2 2 2 2
left_child=2 6 4 26 -1 -6 7 -2 -5 24 11 -10 13 14 15 -12 -4 -11 19 -18 21 -21 23 -23 -7 -9 27 -3 -29 -28
right_child=1 3 16 8 5 9 -8 25 10 17 12 -13 -14 -15 -16 -17 18 -19 -20 20 -22 22 -24 -25 -26 -27 29 28 -30 -31
leaf_value=0.013231616934925144 0.18224361038386599 -0.052582631048618628 -0.059230085498889216 0.20283220783969585 -0.047789246820046337 -0.046176417965233724 0.16772723481368135 0.054752087699936058 -0.076265798002250987 -0.27711905890038946 0.14901545258230234 0.026447710517463922 -0.0042325905684715663 0.089670319090045678 0.15044009217260015 -0.078913139779136221 -0.070104262598330969 -0.15530383568257025 0.13496401869959593 -0.063194475631057151 0.14466949155023409 -0.079887924478354411 0.14028030464722704 0.095574019056647003 -0.18193184169286006 0.22506798757616867 -0.25138234738250204 0.63095632730120499 0.032742677068123609 -0.054831843412384902
leaf_weight=466 322 1026 143 80 820 296 565 1056 315 98 25 935 413 981 79 220 114 958 116 123 100 114 123 96 85 41 67 31 126 1107
leaf_count=466 322 1026 143 80 820 296 565 1056 315 98 25 935 413 981 79 220 114 958 116 123 100 114 123 96 85 41 67 31 126 1107
internal_value=0 0.0294652 -0.0592312 -0.00081809 -0.0881242 -0.109136 0.111987 0.0894357 0.033622 -0.14388 0.0288541 0.000315009 0.0494726 0.0666083 -0.00270452 -0.053768 0.025241 -0.167321 0.0409876 0.0240449 0.0439088 0.0208086 0.0526554 0 -0.0778188 0.0617152 -0.0454338 -0.0241294 0.158784 -0.0666449
internal_weight=0 7389 3652 5405 2723 2257 1984 1419 3048 1437 2968 1250 1718 1305 324 245 929 1056 786 670 556 456 333 210 381 1097 2357 1183 157 1174
internal_count=11041 7389 3652 5405 2723 2257 1984 1419 3048 1437 2968 1250 1718 1305 324 245 929 1056 786 670 556 456 333 210 381 1097 2357 1183 157 1174
is_linear=0
shrinkage=0.0694337


Tree=27
num_leaves=31
num_cat=0
split_feature=0 2 3 3 2 1 2 0 1 3 1 0 3 3 1 2 1 3 1 0 2 1 0 2 3 1 2 2 0 2
split_gain=3469.33 3448 1604.45 1528.25 1066.28 754.703 435.67 408.323 721.016 364.988 337.979 481.72 271.916 342.983 587.11 335.213 236.445 237.079 295.278 232.963 232.993 230.943 262.656 220.95 213.538 371.615 208.215 200.156 196.239 195.207
threshold=-91.801589375680678 389.7890284116408 1499.8641209147902 2800.6108296698012 3.6184512437247669 40.722032486485467 2699.3167194661978 -83.096621275816744 23.702647751212599 11.192315259183227 30.893517707885703 -79.696889054240401 12800.386724877115 4102.2443587126827 39.061460765797328 4498.8548822471921 57.699247683983891 1998.9227409810476 52.30669596941447 -80.122639076311188 4900.6238837200135 102.21367114729355 -96.192151124176817 300.95955822865182 2698.616716512633 43.950913333035665 155.86594583323398 6200.653005660889 -88.895427186579354 3001.910525835845
decision_type=2 2 2 2 2 2 2 2 2 2 2 2 2 2 2 2 2 2 2 2 2 2 2 2 2 2 2 2 2 2
left_child=2 7 4 -3 -1 -6 -5 28 26 21 11 -8 13 14 29 -15 17 -4 24 20 -17 -7 -23 -11 -19 -26 -9 -13 -2 -12
right_child=1 3 16 6 5 9 10 8 -10 23 12 27 -14 15 -16 19 -18 18 -20 -21 -22 22 -24 -25 25 -27 -28 -29 -30 -31
leaf_value=0.012316923534863345 0.34439961792946949 -0.04275852029877223 -0.083773220489759936 0.18910085157951767 -0.047101857999578264 0.10125586947464378 -0.066366910022736952 0.050786117700597905 0.15716894596868788 -0.25750872586895301 0.12824882444609206 0.054487441053133592 -0.00070960725812197433 0.14065863163409856 0.18087460470674963 -0.22466199589949057 0.1375349076692243 -0.065076197162713512 0.13405202697214341 0.067437122731118321 0.053324977807824171 -0.11933133878206167 0.027230096018246774 -0.14253321015792089 -0.04423868505140259 0.090403614387361983 0.2185748653375906 -0.0058614770149861446 0.15305258966536919 -0.060571461082936061
leaf_weight=466 30 2423 99 80 780 31 369 1056 515 96 27 550 404 349 71 26 83 137 108 462 27 279 71 969 165 236 36 498 351 247
leaf_count=466 30 2423 99 80 780 31 369 1056 515 96 27 550 404 349 71 26 83 137 108 462 27 279 71 969 165 236 36 498 351 247
internal_value=0 0.0267529 -0.0567462 -0.0014003 -0.0827488 -0.102737 0.0307619 0.105134 0.0893273 -0.132494 0.0263875 0.00148458 0.0481058 0.0645636 0.00534053 0.0879025 0.0275381 0.0146606 0.0302845 0.0513323 -0.0825515 -0.0725381 -0.0890232 -0.153567 0.00863815 0.0345422 0.0569074 0.0256564 0.170426 -0.0403959
internal_weight=0 7521 3520 5533 2692 2226 3110 1988 1607 1446 3030 1417 1613 1209 345 864 828 745 646 515 53 381 350 1065 538 401 1092 1048 381 274
internal_count=11041 7521 3520 5533 2692 2226 3110 1988 1607 1446 3030 1417 1613 1209 345 864 828 745 646 515 53 381 350 1065 538 401 1092 1048 381 274
is_linear=0
shrinkage=0.0694337


Tree=28
num_leaves=31
num_cat=0
split_feature=0 2 3 3 2 1 2 0 1 3 1 0 3 3 1 2 1 2 0 0 2 3 1 3 1 2 2 1 3 2
split_gain=3007.78 2990.74 1402.4 1324.49 951.824 677.123 378.682 354.606 623.793 353.295 293.29 417.332 236.179 296.015 509.761 290.405 213.279 205.85 253.729 202.595 204.383 194.407 2854.32 439.894 338.462 1642.11 289.475 191.992 199.114 181.917
threshold=-91.801589375680678 389.7890284116408 800.08244643925798 2800.6108296698012 3.6184512437247669 40.722032486485467 2699.3167194661978 -83.096621275816744 23.702647751212599 11.192315259183227 30.893517707885703 -79.696889054240401 12800.386724877115 4102.2443587126827 39.061460765797328 4498.8548822471921 106.22435426452213 7.4461400666214699 -100.0312137889543 -80.122639076311188 4900.6238837200135 1200.9030856766296 20.723295881810056 1401.0472836273073 27.798507462735071 581.13788838487119 609.39341213577575 43.950913333035665 2999.5317692468602 155.86594583323398
decision_type=2 2 2 2 2 2 2 2 2 2 2 2 2 2 2 2 2 2 2 2 2 2 2 2 2 2 2 2 2 2
left_child=2 7 4 21 -1 -6 -5 -2 29 16 11 -8 13 14 -12 -15 17 18 -7 20 -17 24 23 -23 -3 -26 -27 -4 -29 -9
right_child=1 3 27 6 5 9 10 8 -10 -11 12 -13 -14 15 -16 19 -18 -19 -20 -21 -22 22 -24 -25 25 26 -28 28 -30 -31
leaf_value=0.011465462142878618 0.15881578084268788 -0.047095466853268493 -0.039828797309832929 0.1762990840829142 -0.044277167334652326 0.054381914911401034 -0.061784282677677854 0.047266686180443433 0.14629941768600754 -0.14746077706567096 -0.037503760911259718 0.023867783337108178 -0.00066058490896543512 0.1309492447484058 0.16866841040792555 -0.21020342401263548 -0.1638448724868827 0.064997661218888003 -0.11193167214517873 0.062775411013856031 0.049883821028861991 0.21328974126012609 -0.044137900687514803 0.63017281668218816 0.28536020863841977 -0.50593572473502901 -0.2141381927076445 0.021464768085207149 0.11817215176875751 0.20421642731882075
leaf_weight=466 381 1078 182 80 765 56 369 1056 515 1027 274 1048 404 349 71 26 85 68 172 462 27 28 1169 30 27 27 64 573 126 36
leaf_count=466 381 1078 182 80 765 56 369 1056 515 1027 274 1048 404 349 71 26 85 68 172 462 27 28 1169 30 27 27 64 573 126 36
internal_value=0 0.0249303 -0.0528165 -0.00128721 -0.0781415 -0.0974462 0.0286515 0.0979296 0.0831807 -0.12608 0.0245679 0.00135934 0.0447997 0.0601381 0.0050717 0.0818219 -0.0674226 -0.038098 -0.0700566 0.0477395 -0.0770002 -0.0397922 -0.0200675 0.446546 -0.0597852 -0.171194 -0.312197 0.0228128 0.0394888 0.0530044
internal_weight=0 7521 3520 5533 2639 2173 3110 1988 1607 1408 3030 1417 1613 1209 345 864 381 296 228 515 53 2423 1227 58 1196 118 91 881 699 1092
internal_count=11041 7521 3520 5533 2639 2173 3110 1988 1607 1408 3030 1417 1613 1209 345 864 381 296 228 515 53 2423 1227 58 1196 118 91 881 699 1092
is_linear=0
shrinkage=0.0694337


Tree=29
num_leaves=31
num_cat=0
split_feature=0 2 3 3 2 1 0 1 0 3 2 1 0 3 3 1 2 2 2 3 1 3 0 3 0 1 2 1 3 1
split_gain=2607.15 2592.25 1215.74 1147.05 829.419 577.828 317.721 369.46 323.218 305.23 296.443 246.491 379.205 220.976 226.707 434.781 322.941 210.949 246.173 192.929 189.147 220.243 194.971 178.143 326.312 175.491 174.093 170.97 173.871 175.56
threshold=-91.801589375680678 389.7890284116408 799.33964022068142 2399.648312580694 3.6184512437247669 40.722032486485467 -88.895427186579354 23.539590064618597 -83.349048445763927 11.192315259183227 2300.583720253398 31.470195823289057 -79.333505285969963 12299.793896525453 4102.2443587126827 39.061460765797328 4498.8548822471921 6200.653005660889 2500.5824291878776 12200.003102898829 102.21367114729355 8.155354793256862 -100.0312137889543 12299.793896525453 -75.867051091494929 79.189119952162386 3001.910525835845 43.950913333035665 2899.7440783550514 50.901223668546798
decision_type=2 2 2 2 2 2 2 2 2 2 2 2 2 2 2 2 2 2 2 2 2 2 2 2 2 2 2 2 2 2
left_child=2 6 4 -3 -1 -6 -2 8 -8 20 -5 12 19 14 15 26 -16 18 -14 -12 -7 22 -22 24 -19 -11 -13 -4 29 -29
right_child=1 3 27 10 5 9 7 -9 -10 25 11 13 17 -15 16 -17 -18 23 -20 -21 21 -23 -24 -25 -26 -27 -28 28 -30 -31
leaf_value=0.010672861976639124 0.31169535803980536 -0.038069022795545707 -0.036498805782023053 0.17925968819226273 -0.04141804614956214 0.094264491910500653 0.13234911322182216 0.13512965682471884 0.049850955184023098 -0.12691606186654295 -0.061131164418124058 0.12239288905800558 -0.12427829871586728 -0.0013528590274884044 0.13295932762133678 0.1572859450795 0.041655238940915468 0.050759215808041908 0.061018383334108306 0.12216323033038311 0.027427235543988765 0 -0.14426208473092467 0.0064307150649235596 -0.26395312968756135 -0.22946699988381014 -0.05721894410034814 -0.040402559052883084 0.10254837755701561 0.044199929260549345
leaf_weight=466 30 2344 192 58 755 31 296 565 1097 930 430 27 34 389 318 71 479 27 629 27 35 120 195 452 32 97 216 167 151 381
leaf_count=466 30 2344 192 58 755 31 296 565 1097 930 430 27 34 389 318 71 479 27 629 27 35 120 195 452 32 97 216 167 151 381
internal_value=0 0.0232292 -0.0491548 -0.00117666 -0.0729134 -0.0910106 0.0911916 0.0873842 0.0676992 -0.117357 0.025882 0.0228588 0.00402263 0.0431678 0.0589169 0.00812804 0.0785937 0.0250261 0.0508488 -0.0493508 -0.0627616 -0.0777294 -0.117226 -0.00814106 -0.119653 -0.137242 -0.0355547 0.020721 0.036796 0.0179846
internal_weight=0 7521 3520 5533 2629 2163 1988 1958 1393 1408 3189 3131 1631 1500 1111 314 797 1174 663 457 381 350 230 511 59 1027 243 891 699 548
internal_count=11041 7521 3520 5533 2629 2163 1988 1958 1393 1408 3189 3131 1631 1500 1111 314 797 1174 663 457 381 350 230 511 59 1027 243 891 699 548
is_linear=0
shrinkage=0.0694337


Tree=30
num_leaves=31
num_cat=0
split_feature=0 2 3 3 2 1 2 0 1 0 3 1 0 3 3 1 1 0 3 1 2 0 3 1 3 1 2 3 0 2
split_gain=2260.8 2247.4 1053.56 997.25 719.293 500.564 309.611 278.304 319.495 280.359 263.82 233.354 320.874 195.772 284.968 407.378 309.153 292.132 243.368 178.49 169.931 191.424 167.896 2497.85 380.992 295.952 1435.98 273.395 166.667 152.773
threshold=-91.801589375680678 389.7890284116408 799.33964022068142 2800.6108296698012 3.6184512437247669 40.317392005740103 2699.3167194661978 -88.895427186579354 23.539590064618597 -82.530227706475969 11.192315259183227 30.179446036063862 -78.696652596656079 13201.174864801573 4401.5407228620506 35.40895570012281 35.40895570012281 -75.008835363613215 3699.3970997338838 106.22435426452213 7.4461400666214699 -100.0312137889543 1200.9030856766296 20.723295881810056 1401.0472836273073 27.798507462735071 581.13788838487119 1099.1760368712623 -63.1564294813058 300.95955822865182
decision_type=2 2 2 2 2 2 2 2 2 2 2 2 2 2 2 2 2 2 2 2 2 2 2 2 2 2 2 2 2 2
left_child=2 7 4 22 -1 -6 -5 -2 9 -9 19 12 -8 14 15 -13 17 -16 -17 20 21 -7 25 24 -24 -3 -27 -28 -15 -12
right_child=1 3 -4 6 5 10 11 8 -10 -11 29 13 -14 28 16 18 -18 -19 -20 -21 -22 -23 23 -25 -26 26 27 -29 -30 -31
leaf_value=0.0099350520591362061 0.29143809956916239 -0.041193412993779176 0.019277231931064558 0.15841873126541275 -0.038449749248040677 0.047143549111798293 -0.060080963136840117 0.11998520901212968 0.12578104777388918 0.045442841453152416 -0.21437889142747807 -0.041519946829208378 0.019248502009920183 -0.16168114479485624 0.14479569188524952 -0.032724856162202824 0.02430290376195968 0.027235745858437473 0.1376661269971387 -0.14654483864004286 0.062046675398992918 -0.097050804387956713 0.20195384839766622 -0.038694168605433003 0.59169164445979461 0.26940207623077372 -0.36687563580712523 -0.084983981840175679 0.0078897707830727221 -0.11808239849412817
leaf_weight=466 30 1078 891 80 753 56 331 323 565 1070 96 304 935 28 348 54 359 152 134 85 68 172 28 1169 30 27 64 27 385 933
leaf_count=466 30 1078 891 80 753 56 331 323 565 1070 96 304 935 28 348 54 359 152 134 85 68 172 28 1169 30 27 64 27 385 933
internal_value=0 0.021646 -0.0457587 -0.00107608 -0.0678772 -0.0847309 0.0248971 0.0849267 0.0813546 0.0630276 -0.109208 0.0211983 -0.00139182 0.0375117 0.0502957 0.00763388 0.0744123 0.10973 0.087803 -0.0583661 -0.0315115 -0.0606246 -0.0344923 -0.0161613 0.420335 -0.0530647 -0.157225 -0.289193 -0.00384683 -0.127677
internal_weight=0 7521 3520 5533 2629 2163 3110 1988 1958 1393 1410 3030 1266 1764 1351 492 859 500 188 381 296 228 2423 1227 58 1196 118 91 413 1029
internal_count=11041 7521 3520 5533 2629 2163 3110 1988 1958 1393 1410 3030 1266 1764 1351 492 859 500 188 381 296 228 2423 1227 58 1196 118 91 413 1029
is_linear=0
shrinkage=0.0694337


Tree=31
num_leaves=31
num_cat=0
split_feature=0 2 2 3 2 1 2 0 1 0 1 3 1 3 1 0 3 1 3 3 0 0 1 2 3 2 1 3 1 0
split_gain=1961.13 1948.03 920.396 864.711 598.889 414.234 250.288 243.746 276.252 244.407 227.271 228.154 235.386 194.783 193.769 288.43 171.908 272.121 201.543 170.112 253.392 303.918 213.734 178.416 379.585 157.835 156.512 213.518 155.423 195.523
threshold=-91.801589375680678 389.7890284116408 1199.7703761421992 2399.648312580694 3.6184512437247669 40.317392005740103 2300.583720253398 -88.895427186579354 23.539590064618597 -83.349048445763927 57.045481424219979 1998.9227409810476 52.30669596941447 11.192315259183227 30.179446036063862 -78.696652596656079 2698.616716512633 45.922863929437732 3399.0417395973514 13201.174864801573 -81.461859330288647 -75.008835363613215 39.45276149287043 4400.7645906550724 4401.5407228620506 155.86594583323398 35.40895570012281 3702.0123293556485 102.21367114729355 -96.363609060694515
decision_type=2 2 2 2 2 2 2 2 2 2 2 2 2 2 2 2 2 2 2 2 2 2 2 2 2 2 2 2 2 2
left_child=2 7 4 -3 -1 -6 -5 -2 9 -9 11 -4 16 28 15 -8 -13 18 -18 20 22 -22 23 24 26 -11 -16 -28 -7 -30
right_child=1 3 10 6 5 13 14 8 -10 25 -12 12 -14 -15 19 -17 17 -19 -20 -21 21 -23 -24 -25 -26 -27 27 -29 29 -31
leaf_value=0.0092482483310567676 0.27249736612925995 -0.03301070728034608 -0.10059886942529209 0.16345153703533144 -0.035289389698145643 0.087781613597312957 -0.05276244075979597 0.1149491798033641 0.11707919380944959 0.037472310956467331 0.12457050933158517 -0.061857632986535981 0.1207518137610957 -0.1137134446040724 -0.046264178172595323 0.01928796906267095 -0.056719205172718785 0.10426949181679088 0.072833775062909265 -0.0035976473496942877 0.1244414679892811 0.034004407855216336 0.11586674446932921 -0.14616775949264571 0.14757074050838731 0.17501750635886726 -0.07621492648184712 0.11371356054473648 -0.096631762895855927 0.023415559095166339
leaf_weight=466 30 2344 79 58 778 31 363 296 565 1056 91 137 98 1089 290 1004 176 142 83 413 325 420 82 37 77 41 41 79 268 82
leaf_count=466 30 2344 79 58 778 31 363 296 565 1056 91 137 98 1089 290 1004 176 142 83 413 325 420 82 37 77 41 41 79 268 82
internal_value=0 0.020178 -0.0426008 -0.0009741 -0.061959 -0.0768075 0.0225145 0.0790934 0.0757418 0.0586786 0.0223173 0.00869371 0.0228755 -0.0985598 0.0197319 0 0.00427021 0.0275791 -0.0141583 0.0349239 0.0468415 0.073969 0.0130121 -0.00307653 0.00793635 0.0431196 -0.0183861 0.0469244 -0.0543258 -0.0679421
internal_weight=0 7521 3520 5533 2714 2248 3189 1988 1958 1393 806 715 636 1470 3131 1367 538 401 259 1764 1351 745 606 524 487 1097 410 120 381 350
internal_count=11041 7521 3520 5533 2714 2248 3189 1988 1958 1393 806 715 636 1470 3131 1367 538 401 259 1764 1351 745 606 524 487 1097 410 120 381 350
is_linear=0
shrinkage=0.0694337


Tree=32
num_leaves=31
num_cat=0
split_feature=0 2 3 3 2 1 2 0 1 0 3 1 0 1 2 3 3 2 3 1 3 1 2 2 2 0 2 0 1 2
split_gain=1699.34 1690 804.694 754.488 540.537 383.265 256.668 213.398 238.566 211.405 200.744 178.576 235.124 153.773 143.995 155.265 149.847 252.675 143.56 2187.72 329.839 257.463 1254.28 245.437 140.312 157.941 139.37 181.25 305.338 137.697
threshold=-91.801589375680678 389.7890284116408 800.08244643925798 2800.6108296698012 3.6184512437247669 40.722032486485467 2699.3167194661978 -88.895427186579354 23.539590064618597 -83.349048445763927 11.192315259183227 30.893517707885703 -79.696889054240401 106.22435426452213 6200.653005660889 4800.4761352339028 12399.978111261289 10200.617959346173 1200.9030856766296 20.723295881810056 1401.0472836273073 27.798507462735071 581.13788838487119 609.39341213577575 7.4461400666214699 -100.0312137889543 10000.15274306663 -84.093634918469149 38.742454308075843 155.86594583323398
decision_type=2 2 2 2 2 2 2 2 2 2 2 2 2 2 2 2 2 2 2 2 2 2 2 2 2 2 2 2 2 2
left_child=2 7 4 18 -1 -6 -5 -2 9 -9 13 12 -8 24 15 -14 17 -16 21 20 -20 -3 -23 -24 25 -7 27 28 -13 -11
right_child=1 3 -4 6 5 10 11 8 -10 29 -12 26 14 -15 16 -17 -18 -19 19 -21 -22 22 23 -25 -26 -27 -28 -29 -30 -31
leaf_value=0.0086089217999710255 0.25478761035265363 -0.036050931500791507 0.017613602693159713 0.14327731844319347 -0.033264746706524136 0.045605684184058908 -0.047179214648598367 0.1070227575264686 0.10897935714430809 0.034875513359344967 -0.11109044891730957 -0.031674987552137684 0.025884348631483745 -0.13226030492038174 -0.25464859838931064 0.13242378096852195 0.0087978447157079278 -0.0096260389033123572 0.19102410356188035 -0.034110212212275975 0.55538267349076509 0.25414732353265507 -0.44502478843678761 -0.17826771786483239 0.059380180312775609 -0.085237420432523636 -0.00052876802599079544 0.063805109463085749 0.11188795276024308 0.16344432859794136
leaf_weight=466 30 1078 881 80 765 56 369 296 565 1056 1027 275 473 85 28 77 401 69 28 1169 30 27 27 64 68 172 407 837 94 41
leaf_count=466 30 1078 881 80 765 56 369 296 565 1056 1027 275 473 85 28 77 401 69 28 1169 30 27 27 64 68 172 407 837 94 41
internal_value=0 0.0188069 -0.0396315 -0.000891968 -0.0588198 -0.0733701 0.0216948 0.073682 0.0705372 0.0546585 -0.0949325 0.0183212 0.000183237 -0.0504728 0.0171175 0.0416138 -0.00957981 -0.0862654 -0.0299625 -0.0130078 0.395486 -0.0471308 -0.144271 -0.267718 -0.0255391 -0.052075 0.0341057 0.0459476 0.00475153 0.0401663
internal_weight=0 7521 3520 5533 2639 2173 3110 1988 1958 1393 1408 3030 1417 381 1048 550 498 97 2423 1227 58 1196 118 91 296 228 1613 1206 369 1097
internal_count=11041 7521 3520 5533 2639 2173 3110 1988 1958 1393 1408 3030 1417 381 1048 550 498 97 2423 1227 58 1196 118 91 296 228 1613 1206 369 1097
is_linear=0
shrinkage=0.0694337


Tree=33
num_leaves=31
num_cat=0
split_feature=0 2 3 3 2 1 2 0 1 0 1 3 1 3 3 1 3 1 1 0 2 3 3 1 1 3 3 1 2 2
split_gain=1473.4 1466.22 698.888 653.042 456.533 321.502 223.185 186.801 205.98 182.83 174.968 179.3 214.831 156.523 149.124 235.923 175.222 146.877 145.241 217.702 155.479 497.624 143.292 148.966 133.78 129.862 140.213 286.783 210.958 156.341
threshold=-91.801589375680678 389.7890284116408 1499.8641209147902 2800.6108296698012 3.6184512437247669 40.722032486485467 2600.5565912671423 -88.895427186579354 23.539590064618597 -83.349048445763927 57.699247683983891 1998.9227409810476 52.30669596941447 11.192315259183227 2698.616716512633 45.922863929437732 3399.0417395973514 79.189119952162386 31.470195823289057 -79.696889054240401 6200.653005660889 12200.003102898829 4699.3652279537155 26.948006846656885 106.22435426452213 12299.793896525453 4099.9690206828482 39.061460765797328 4498.8548822471921 3001.910525835845
decision_type=2 2 2 2 2 2 2 2 2 2 2 2 2 2 2 2 2 2 2 2 2 2 2 2 2 2 2 2 2 2
left_child=2 7 4 -3 -1 -6 -5 -2 9 -9 11 -4 14 24 -13 16 -16 -15 19 -8 22 -22 23 -21 -7 26 27 29 -28 -20
right_child=1 3 10 6 5 13 18 8 -10 -11 -12 12 -14 17 15 -17 -18 -19 25 20 21 -23 -24 -25 -26 -27 28 -29 -30 -31
leaf_value=0.0080137910896335412 0.23822881896142256 -0.027864048314328402 -0.078027470155198855 0.1510367360419223 -0.030679928336869455 -0.023659361135979919 -0.039809239144161943 0.099642907843037323 0.10143988633380346 0.037416258683486053 0.11321478744790962 -0.058830918030686886 0.1096775790660076 -0.091479175908015867 -0.054035235999898443 0.095927192389124422 0.066705121564869893 -0.18406900498792592 0.11509972099756907 0.032401608959530717 -0.29931873270961323 0.0062908663616496807 0.10160417810660183 -0.1345020302601779 -0.12329334872419077 -0.0011583067953930325 0.1023124175913199 0.12488154088792755 0.029490003588624587 -0.055757009147217824
leaf_weight=466 30 2423 99 60 780 296 423 296 565 1097 83 137 108 968 176 142 83 97 27 437 25 492 148 25 85 389 334 70 479 201
leaf_count=466 30 2423 99 60 780 296 423 296 565 1097 83 137 108 968 176 142 83 97 27 437 25 492 148 25 85 389 334 70 479 201
internal_value=0 0.01753 -0.0368849 -0.000815857 -0.0540537 -0.0671361 0.0201949 0.068643 0.0656918 0.0509152 0.0186791 0.00758621 0.0212334 -0.0865861 0.00274403 0.02449 -0.0143244 -0.100445 0.017453 0.00239377 0.018462 -0.00921017 0.0422078 0.0223666 -0.0469723 0.032851 0.0449261 0.00339968 0.0598449 -0.0337728
internal_weight=0 7521 3520 5533 2692 2226 3110 1988 1958 1393 828 745 646 1446 538 401 259 1065 3050 1550 1127 517 610 462 381 1500 1111 298 813 228
internal_count=11041 7521 3520 5533 2692 2226 3110 1988 1958 1393 828 745 646 1446 538 401 259 1065 3050 1550 1127 517 610 462 381 1500 1111 298 813 228
is_linear=0
shrinkage=0.0694337


Tree=34
num_leaves=31
num_cat=0
split_feature=0 2 3 3 2 0 0 2 1 3 2 0 1 1 0 1 1 3 2 0 0 3 3 0 0 2 3 1 2 2
split_gain=1286.55 1013.43 586.443 514.742 396.812 946.361 489.971 298.719 234.937 337.63 208.789 209.911 200.728 193.819 534.831 182.891 172.448 166.56 206.701 203.177 185.409 164.011 162.667 153.823 331.01 376.165 335.383 151.209 206.478 179.955
threshold=-88.371424017959654 389.7890284116408 1000.8622535412171 2800.6108296698012 501.59991857566052 -91.801589375680678 -89.550647876617504 3.6184512437247669 39.061460765797328 3499.998252457638 5100.0247875339819 -80.670510685800878 43.950913333035665 28.557709692140161 -91.134243139929993 23.539590064618597 61.635672250660541 4699.3652279537155 2600.5565912671423 -62.493831292020744 -78.537254957526201 174.93823941783774 11.192315259183227 -72.588093093647146 -76.721236706370505 10200.617959346173 12399.978111261289 31.605577328108346 4400.7645906550724 4900.6238837200135
decision_type=2 2 2 2 2 2 2 2 2 2 2 2 2 2 2 2 2 2 2 2 2 2 2 2 2 2 2 2 2 2
left_child=2 15 4 -3 5 7 -7 -1 -4 12 11 27 -10 -6 -15 21 -9 18 -13 -19 -20 -2 -18 24 26 -26 -12 -5 -29 -30
right_child=1 3 8 10 13 6 -8 16 9 -11 23 17 -14 14 -16 -17 22 19 20 -21 -22 -23 -24 -25 25 -27 -28 28 29 -31
leaf_value=0.007459801833508516 0.036972416353612515 -0.023117666560434669 -0.045547192642633773 -0.042129542614224913 -0.028762468563111702 0.42089984872381608 0.057669895495263877 -0.028576566903538721 -0.072342189115014249 0.16531612527779985 -0.046333635712697302 0.15540792112763091 0.028310511727847057 -0.088738589625749875 -0.34785630199077189 0.094422017786712109 -0.043803269993958081 0.12937219632499963 -0.11339810375380313 0.028989538269112818 0.03086897206435146 0.10895677955019717 -0.10827233422414592 0.011888846948110526 -0.34173446987954498 -0.022284094414585093 0.19304576568335541 0.052315496169491091 -0.2040139359313918 0.033506428412458676
leaf_weight=466 1191 2238 270 206 220 29 48 638 108 77 127 57 691 622 40 565 381 259 45 167 452 179 414 1056 32 41 34 332 29 27
leaf_count=466 1191 2238 270 206 220 29 48 638 108 77 127 57 691 622 40 565 381 259 45 167 452 179 414 1056 32 41 34 332 29 27
internal_value=0 0.0180511 -0.0312379 0.00177489 -0.0480681 -0.0305657 0.204477 -0.040416 0.0105642 0.028162 0.0213019 0.0382584 0.014295 -0.0868824 -0.105735 0.0608117 -0.0561184 0.0579885 0.032115 0.0908344 0.0169768 0.0466783 -0.0778294 0.000423164 -0.0500907 -0.170605 0.00473339 0.00527004 0.031059 -0.0887691
internal_weight=0 7037 4004 5102 2858 1976 77 1899 1146 876 2864 1574 799 882 662 1935 1433 980 554 426 497 1370 795 1290 234 73 161 594 388 56
internal_count=11041 7037 4004 5102 2858 1976 77 1899 1146 876 2864 1574 799 882 662 1935 1433 980 554 426 497 1370 795 1290 234 73 161 594 388 56
is_linear=0
shrinkage=0.0694337


Tree=35
num_leaves=31
num_cat=0
split_feature=0 2 3 3 2 0 0 2 1 3 2 0 1 1 0 1 1 3 2 0 0 3 3 0 0 2 3 1 2 3
split_gain=1114.97 878.668 508.283 445.749 345.173 827.338 427.699 259.254 203.761 293.574 181.407 182.507 175.081 167.819 467.106 158.017 149.29 144.275 180.031 175.61 158.247 142.118 138.379 134.101 290.15 327.824 292.586 130.911 179.49 161.175
threshold=-88.371424017959654 389.7890284116408 1000.8622535412171 2800.6108296698012 501.59991857566052 -91.801589375680678 -89.550647876617504 3.6184512437247669 39.061460765797328 3499.998252457638 5100.0247875339819 -80.670510685800878 43.480842720107276 28.557709692140161 -91.134243139929993 23.539590064618597 25.419832955476803 4699.3652279537155 2699.3167194661978 -62.493831292020744 -76.944741316107482 174.93823941783774 11.192315259183227 -72.588093093647146 -76.721236706370505 10200.617959346173 12399.978111261289 31.605577328108346 4400.7645906550724 4299.616737134199
decision_type=2 2 2 2 2 2 2 2 2 2 2 2 2 2 2 2 2 2 2 2 2 2 2 2 2 2 2 2 2 2
left_child=2 15 4 -3 5 7 -7 -1 -4 12 11 27 -10 -6 -15 21 -9 18 -13 -19 -20 -2 -18 24 26 -26 -12 -5 29 -29
right_child=1 3 8 10 13 6 -8 16 9 -11 23 17 -14 14 -16 -17 22 19 20 -21 -22 -23 -24 -25 25 -27 -28 28 -30 -31
